digraph Tree {
node [shape=box, style="filled, rounded", color="black", fontname="helvetica"] ;
edge [fontname="helvetica"] ;
0 [label=<TRAFFCTL &le; 0.5<br/>gini = 0.5<br/>samples = 8965<br/>value = [7289.495, 7078.818]<br/>class = 0>, fillcolor="#fefbf9"] ;
1 [label=<TIME &le; 1828.5<br/>gini = 0.496<br/>samples = 4281<br/>value = [3935.76, 3303.41]<br/>class = 0>, fillcolor="#fbebdf"] ;
0 -> 1 [labeldistance=2.5, labelangle=45, headlabel="True"] ;
2 [label=<AUTOMOBILE &le; 0.5<br/>gini = 0.5<br/>samples = 3028<br/>value = [2523.287, 2389.094]<br/>class = 0>, fillcolor="#fef8f4"] ;
1 -> 2 ;
3 [label=<INJURY &le; 0.5<br/>gini = 0.47<br/>samples = 322<br/>value = [386.833, 233.962]<br/>class = 0>, fillcolor="#f5cdb1"] ;
2 -> 3 ;
4 [label=<gini = 0.0<br/>samples = 31<br/>value = [163.251, 0.0]<br/>class = 0>, fillcolor="#e58139"] ;
3 -> 4 ;
5 [label=<TRUCK &le; 0.5<br/>gini = 0.5<br/>samples = 291<br/>value = [223.582, 233.962]<br/>class = 1>, fillcolor="#f6fbfe"] ;
3 -> 5 ;
6 [label=<LONGITUDE &le; -79.47<br/>gini = 0.441<br/>samples = 198<br/>value = [81.625, 167.033]<br/>class = 1>, fillcolor="#9acdf2"] ;
5 -> 6 ;
7 [label=<gini = 0.0<br/>samples = 38<br/>value = [0.0, 33.756]<br/>class = 1>, fillcolor="#399de5"] ;
6 -> 7 ;
8 [label=<LATITUDE &le; 43.674<br/>gini = 0.471<br/>samples = 160<br/>value = [81.625, 133.277]<br/>class = 1>, fillcolor="#b2d9f5"] ;
6 -> 8 ;
9 [label=<SPEEDING &le; 0.5<br/>gini = 0.499<br/>samples = 79<br/>value = [67.43, 61.692]<br/>class = 0>, fillcolor="#fdf4ee"] ;
8 -> 9 ;
10 [label=<ROAD_CLASS &le; 6.5<br/>gini = 0.497<br/>samples = 72<br/>value = [49.685, 58.2]<br/>class = 1>, fillcolor="#e2f1fb"] ;
9 -> 10 ;
11 [label=<INJURY &le; 4.0<br/>gini = 0.495<br/>samples = 52<br/>value = [49.685, 40.74]<br/>class = 0>, fillcolor="#fae8db"] ;
10 -> 11 ;
12 [label=<MONTH &le; 5.5<br/>gini = 0.435<br/>samples = 24<br/>value = [10.647, 22.698]<br/>class = 1>, fillcolor="#96cbf1"] ;
11 -> 12 ;
13 [label=<YEAR &le; 2013.5<br/>gini = 0.423<br/>samples = 5<br/>value = [10.647, 4.656]<br/>class = 0>, fillcolor="#f0b890"] ;
12 -> 13 ;
14 [label=<DAY &le; 5.0<br/>gini = 0.178<br/>samples = 2<br/>value = [10.647, 1.164]<br/>class = 0>, fillcolor="#e88f4f"] ;
13 -> 14 ;
15 [label=<gini = 0.0<br/>samples = 1<br/>value = [10.647, 0.0]<br/>class = 0>, fillcolor="#e58139"] ;
14 -> 15 ;
16 [label=<gini = 0.0<br/>samples = 1<br/>value = [0.0, 1.164]<br/>class = 1>, fillcolor="#399de5"] ;
14 -> 16 ;
17 [label=<gini = 0.0<br/>samples = 3<br/>value = [0.0, 3.492]<br/>class = 1>, fillcolor="#399de5"] ;
13 -> 17 ;
18 [label=<DIVISION &le; 1.0<br/>gini = 0.0<br/>samples = 19<br/>value = [0.0, 18.042]<br/>class = 1>, fillcolor="#399de5"] ;
12 -> 18 ;
19 [label=<gini = 0.0<br/>samples = 1<br/>value = [0.0, 1.164]<br/>class = 1>, fillcolor="#399de5"] ;
18 -> 19 ;
20 [label=<gini = 0.0<br/>samples = 18<br/>value = [0.0, 16.878]<br/>class = 1>, fillcolor="#399de5"] ;
18 -> 20 ;
21 [label=<EMERG_VEH &le; 0.5<br/>gini = 0.432<br/>samples = 28<br/>value = [39.038, 18.042]<br/>class = 0>, fillcolor="#f1bb95"] ;
11 -> 21 ;
22 [label=<YEAR &le; 2009.5<br/>gini = 0.403<br/>samples = 24<br/>value = [39.038, 15.132]<br/>class = 0>, fillcolor="#efb286"] ;
21 -> 22 ;
23 [label=<gini = 0.0<br/>samples = 7<br/>value = [0.0, 5.82]<br/>class = 1>, fillcolor="#399de5"] ;
22 -> 23 ;
24 [label=<YEAR &le; 2015.5<br/>gini = 0.311<br/>samples = 17<br/>value = [39.038, 9.312]<br/>class = 0>, fillcolor="#eb9f68"] ;
22 -> 24 ;
25 [label=<ACCLOC &le; 2.0<br/>gini = 0.19<br/>samples = 12<br/>value = [39.038, 4.656]<br/>class = 0>, fillcolor="#e89051"] ;
24 -> 25 ;
26 [label=<gini = 0.0<br/>samples = 2<br/>value = [17.745, 0.0]<br/>class = 0>, fillcolor="#e58139"] ;
25 -> 26 ;
27 [label=<TRSN_CITY_VEH &le; 0.5<br/>gini = 0.294<br/>samples = 10<br/>value = [21.294, 4.656]<br/>class = 0>, fillcolor="#eb9d64"] ;
25 -> 27 ;
28 [label=<gini = 0.0<br/>samples = 1<br/>value = [0.0, 0.582]<br/>class = 1>, fillcolor="#399de5"] ;
27 -> 28 ;
29 [label=<TIME &le; 468.5<br/>gini = 0.27<br/>samples = 9<br/>value = [21.294, 4.074]<br/>class = 0>, fillcolor="#ea995f"] ;
27 -> 29 ;
30 [label=<gini = 0.0<br/>samples = 4<br/>value = [0.0, 2.91]<br/>class = 1>, fillcolor="#399de5"] ;
29 -> 30 ;
31 [label=<RDSFCOND &le; 4.0<br/>gini = 0.098<br/>samples = 5<br/>value = [21.294, 1.164]<br/>class = 0>, fillcolor="#e68844"] ;
29 -> 31 ;
32 [label=<gini = 0.0<br/>samples = 2<br/>value = [14.196, 0.0]<br/>class = 0>, fillcolor="#e58139"] ;
31 -> 32 ;
33 [label=<LATITUDE &le; 43.655<br/>gini = 0.242<br/>samples = 3<br/>value = [7.098, 1.164]<br/>class = 0>, fillcolor="#e99659"] ;
31 -> 33 ;
34 [label=<gini = 0.0<br/>samples = 1<br/>value = [0.0, 1.164]<br/>class = 1>, fillcolor="#399de5"] ;
33 -> 34 ;
35 [label=<DRIVCOND &le; 8.0<br/>gini = 0.0<br/>samples = 2<br/>value = [7.098, 0.0]<br/>class = 0>, fillcolor="#e58139"] ;
33 -> 35 ;
36 [label=<gini = 0.0<br/>samples = 1<br/>value = [3.549, 0.0]<br/>class = 0>, fillcolor="#e58139"] ;
35 -> 36 ;
37 [label=<gini = 0.0<br/>samples = 1<br/>value = [3.549, 0.0]<br/>class = 0>, fillcolor="#e58139"] ;
35 -> 37 ;
38 [label=<DAY &le; 5.0<br/>gini = 0.0<br/>samples = 5<br/>value = [0.0, 4.656]<br/>class = 1>, fillcolor="#399de5"] ;
24 -> 38 ;
39 [label=<gini = 0.0<br/>samples = 1<br/>value = [0.0, 1.164]<br/>class = 1>, fillcolor="#399de5"] ;
38 -> 39 ;
40 [label=<gini = 0.0<br/>samples = 4<br/>value = [0.0, 3.492]<br/>class = 1>, fillcolor="#399de5"] ;
38 -> 40 ;
41 [label=<gini = 0.0<br/>samples = 4<br/>value = [0.0, 2.91]<br/>class = 1>, fillcolor="#399de5"] ;
21 -> 41 ;
42 [label=<gini = -0.0<br/>samples = 20<br/>value = [0.0, 17.46]<br/>class = 1>, fillcolor="#399de5"] ;
10 -> 42 ;
43 [label=<LATITUDE &le; 43.66<br/>gini = 0.275<br/>samples = 7<br/>value = [17.745, 3.492]<br/>class = 0>, fillcolor="#ea9a60"] ;
9 -> 43 ;
44 [label=<CYCLIST &le; 0.5<br/>gini = 0.0<br/>samples = 4<br/>value = [0.0, 3.492]<br/>class = 1>, fillcolor="#399de5"] ;
43 -> 44 ;
45 [label=<gini = 0.0<br/>samples = 3<br/>value = [0.0, 2.91]<br/>class = 1>, fillcolor="#399de5"] ;
44 -> 45 ;
46 [label=<gini = 0.0<br/>samples = 1<br/>value = [0.0, 0.582]<br/>class = 1>, fillcolor="#399de5"] ;
44 -> 46 ;
47 [label=<LATITUDE &le; 43.671<br/>gini = 0.0<br/>samples = 3<br/>value = [17.745, 0.0]<br/>class = 0>, fillcolor="#e58139"] ;
43 -> 47 ;
48 [label=<gini = 0.0<br/>samples = 1<br/>value = [7.098, 0.0]<br/>class = 0>, fillcolor="#e58139"] ;
47 -> 48 ;
49 [label=<gini = 0.0<br/>samples = 2<br/>value = [10.647, 0.0]<br/>class = 0>, fillcolor="#e58139"] ;
47 -> 49 ;
50 [label=<YEAR &le; 2022.5<br/>gini = 0.276<br/>samples = 81<br/>value = [14.196, 71.586]<br/>class = 1>, fillcolor="#60b0ea"] ;
8 -> 50 ;
51 [label=<TIME &le; 975.0<br/>gini = 0.225<br/>samples = 80<br/>value = [10.647, 71.586]<br/>class = 1>, fillcolor="#56ace9"] ;
50 -> 51 ;
52 [label=<VISIBILITY &le; 5.5<br/>gini = 0.478<br/>samples = 21<br/>value = [10.647, 16.296]<br/>class = 1>, fillcolor="#baddf6"] ;
51 -> 52 ;
53 [label=<LONGITUDE &le; -79.347<br/>gini = 0.423<br/>samples = 20<br/>value = [7.098, 16.296]<br/>class = 1>, fillcolor="#8fc8f0"] ;
52 -> 53 ;
54 [label=<LIGHT &le; 0.5<br/>gini = 0.0<br/>samples = 11<br/>value = [0.0, 9.312]<br/>class = 1>, fillcolor="#399de5"] ;
53 -> 54 ;
55 [label=<gini = 0.0<br/>samples = 4<br/>value = [0.0, 2.91]<br/>class = 1>, fillcolor="#399de5"] ;
54 -> 55 ;
56 [label=<gini = 0.0<br/>samples = 7<br/>value = [0.0, 6.402]<br/>class = 1>, fillcolor="#399de5"] ;
54 -> 56 ;
57 [label=<IMPACTYPE &le; 3.5<br/>gini = 0.5<br/>samples = 9<br/>value = [7.098, 6.984]<br/>class = 0>, fillcolor="#fffdfc"] ;
53 -> 57 ;
58 [label=<gini = 0.0<br/>samples = 1<br/>value = [3.549, 0.0]<br/>class = 0>, fillcolor="#e58139"] ;
57 -> 58 ;
59 [label=<RDSFCOND &le; 4.0<br/>gini = 0.447<br/>samples = 8<br/>value = [3.549, 6.984]<br/>class = 1>, fillcolor="#9ecff2"] ;
57 -> 59 ;
60 [label=<gini = 0.0<br/>samples = 5<br/>value = [0.0, 4.656]<br/>class = 1>, fillcolor="#399de5"] ;
59 -> 60 ;
61 [label=<ROAD_CLASS &le; 6.5<br/>gini = 0.478<br/>samples = 3<br/>value = [3.549, 2.328]<br/>class = 0>, fillcolor="#f6d4bb"] ;
59 -> 61 ;
62 [label=<gini = 0.0<br/>samples = 1<br/>value = [3.549, 0.0]<br/>class = 0>, fillcolor="#e58139"] ;
61 -> 62 ;
63 [label=<DRIVCOND &le; 6.5<br/>gini = 0.0<br/>samples = 2<br/>value = [0.0, 2.328]<br/>class = 1>, fillcolor="#399de5"] ;
61 -> 63 ;
64 [label=<gini = 0.0<br/>samples = 1<br/>value = [0.0, 1.746]<br/>class = 1>, fillcolor="#399de5"] ;
63 -> 64 ;
65 [label=<gini = 0.0<br/>samples = 1<br/>value = [0.0, 0.582]<br/>class = 1>, fillcolor="#399de5"] ;
63 -> 65 ;
66 [label=<gini = 0.0<br/>samples = 1<br/>value = [3.549, 0.0]<br/>class = 0>, fillcolor="#e58139"] ;
52 -> 66 ;
67 [label=<gini = -0.0<br/>samples = 59<br/>value = [0.0, 55.29]<br/>class = 1>, fillcolor="#399de5"] ;
51 -> 67 ;
68 [label=<gini = 0.0<br/>samples = 1<br/>value = [3.549, 0.0]<br/>class = 0>, fillcolor="#e58139"] ;
50 -> 68 ;
69 [label=<LATITUDE &le; 43.662<br/>gini = 0.435<br/>samples = 93<br/>value = [141.957, 66.93]<br/>class = 0>, fillcolor="#f1bc96"] ;
5 -> 69 ;
70 [label=<PEDCOND &le; 8.5<br/>gini = 0.482<br/>samples = 35<br/>value = [17.745, 26.19]<br/>class = 1>, fillcolor="#bfdff7"] ;
69 -> 70 ;
71 [label=<gini = 0.0<br/>samples = 6<br/>value = [0.0, 5.238]<br/>class = 1>, fillcolor="#399de5"] ;
70 -> 71 ;
72 [label=<LATITUDE &le; 43.656<br/>gini = 0.497<br/>samples = 29<br/>value = [17.745, 20.952]<br/>class = 1>, fillcolor="#e1f0fb"] ;
70 -> 72 ;
73 [label=<PEDESTRIAN &le; 0.5<br/>gini = 0.451<br/>samples = 18<br/>value = [17.745, 9.312]<br/>class = 0>, fillcolor="#f3c3a1"] ;
72 -> 73 ;
74 [label=<RDSFCOND &le; 4.0<br/>gini = 0.459<br/>samples = 11<br/>value = [3.549, 6.402]<br/>class = 1>, fillcolor="#a7d3f3"] ;
73 -> 74 ;
75 [label=<gini = 0.0<br/>samples = 9<br/>value = [0.0, 5.82]<br/>class = 1>, fillcolor="#399de5"] ;
74 -> 75 ;
76 [label=<VISIBILITY &le; 2.5<br/>gini = 0.242<br/>samples = 2<br/>value = [3.549, 0.582]<br/>class = 0>, fillcolor="#e99659"] ;
74 -> 76 ;
77 [label=<gini = 0.0<br/>samples = 1<br/>value = [3.549, 0.0]<br/>class = 0>, fillcolor="#e58139"] ;
76 -> 77 ;
78 [label=<gini = 0.0<br/>samples = 1<br/>value = [0.0, 0.582]<br/>class = 1>, fillcolor="#399de5"] ;
76 -> 78 ;
79 [label=<LATITUDE &le; 43.645<br/>gini = 0.282<br/>samples = 7<br/>value = [14.196, 2.91]<br/>class = 0>, fillcolor="#ea9b62"] ;
73 -> 79 ;
80 [label=<gini = 0.0<br/>samples = 3<br/>value = [0.0, 1.746]<br/>class = 1>, fillcolor="#399de5"] ;
79 -> 80 ;
81 [label=<DRIVCOND &le; 8.0<br/>gini = 0.14<br/>samples = 4<br/>value = [14.196, 1.164]<br/>class = 0>, fillcolor="#e78b49"] ;
79 -> 81 ;
82 [label=<YEAR &le; 2013.0<br/>gini = 0.076<br/>samples = 3<br/>value = [14.196, 0.582]<br/>class = 0>, fillcolor="#e68641"] ;
81 -> 82 ;
83 [label=<gini = 0.0<br/>samples = 1<br/>value = [0.0, 0.582]<br/>class = 1>, fillcolor="#399de5"] ;
82 -> 83 ;
84 [label=<gini = 0.0<br/>samples = 2<br/>value = [14.196, 0.0]<br/>class = 0>, fillcolor="#e58139"] ;
82 -> 84 ;
85 [label=<gini = 0.0<br/>samples = 1<br/>value = [0.0, 0.582]<br/>class = 1>, fillcolor="#399de5"] ;
81 -> 85 ;
86 [label=<gini = -0.0<br/>samples = 11<br/>value = [0.0, 11.64]<br/>class = 1>, fillcolor="#399de5"] ;
72 -> 86 ;
87 [label=<INJURY &le; 1.5<br/>gini = 0.372<br/>samples = 58<br/>value = [124.212, 40.74]<br/>class = 0>, fillcolor="#eeaa7a"] ;
69 -> 87 ;
88 [label=<gini = 0.0<br/>samples = 8<br/>value = [0.0, 9.894]<br/>class = 1>, fillcolor="#399de5"] ;
87 -> 88 ;
89 [label=<LATITUDE &le; 43.673<br/>gini = 0.319<br/>samples = 50<br/>value = [124.212, 30.846]<br/>class = 0>, fillcolor="#eba06a"] ;
87 -> 89 ;
90 [label=<ACCLOC &le; 3.0<br/>gini = 0.125<br/>samples = 10<br/>value = [56.783, 4.074]<br/>class = 0>, fillcolor="#e78a47"] ;
89 -> 90 ;
91 [label=<gini = 0.0<br/>samples = 1<br/>value = [0.0, 0.582]<br/>class = 1>, fillcolor="#399de5"] ;
90 -> 91 ;
92 [label=<YEAR &le; 2010.5<br/>gini = 0.109<br/>samples = 9<br/>value = [56.783, 3.492]<br/>class = 0>, fillcolor="#e78945"] ;
90 -> 92 ;
93 [label=<gini = -0.0<br/>samples = 5<br/>value = [56.783, 0.0]<br/>class = 0>, fillcolor="#e58139"] ;
92 -> 93 ;
94 [label=<YEAR &le; 2011.5<br/>gini = 0.0<br/>samples = 4<br/>value = [0.0, 3.492]<br/>class = 1>, fillcolor="#399de5"] ;
92 -> 94 ;
95 [label=<gini = 0.0<br/>samples = 3<br/>value = [0.0, 2.328]<br/>class = 1>, fillcolor="#399de5"] ;
94 -> 95 ;
96 [label=<gini = 0.0<br/>samples = 1<br/>value = [0.0, 1.164]<br/>class = 1>, fillcolor="#399de5"] ;
94 -> 96 ;
97 [label=<ACCLOC &le; 4.5<br/>gini = 0.407<br/>samples = 40<br/>value = [67.43, 26.772]<br/>class = 0>, fillcolor="#efb388"] ;
89 -> 97 ;
98 [label=<DIVISION &le; 15.5<br/>gini = 0.232<br/>samples = 24<br/>value = [63.881, 9.894]<br/>class = 0>, fillcolor="#e99558"] ;
97 -> 98 ;
99 [label=<IMPACTYPE &le; 6.5<br/>gini = 0.201<br/>samples = 23<br/>value = [63.881, 8.148]<br/>class = 0>, fillcolor="#e89152"] ;
98 -> 99 ;
100 [label=<PEDCOND &le; 7.0<br/>gini = 0.166<br/>samples = 22<br/>value = [63.881, 6.402]<br/>class = 0>, fillcolor="#e88e4d"] ;
99 -> 100 ;
101 [label=<gini = 0.0<br/>samples = 1<br/>value = [0.0, 1.164]<br/>class = 1>, fillcolor="#399de5"] ;
100 -> 101 ;
102 [label=<LONGITUDE &le; -79.552<br/>gini = 0.14<br/>samples = 21<br/>value = [63.881, 5.238]<br/>class = 0>, fillcolor="#e78b49"] ;
100 -> 102 ;
103 [label=<gini = 0.0<br/>samples = 2<br/>value = [0.0, 1.164]<br/>class = 1>, fillcolor="#399de5"] ;
102 -> 103 ;
104 [label=<LONGITUDE &le; -79.231<br/>gini = 0.113<br/>samples = 19<br/>value = [63.881, 4.074]<br/>class = 0>, fillcolor="#e78946"] ;
102 -> 104 ;
105 [label=<LATITUDE &le; 43.682<br/>gini = 0.083<br/>samples = 18<br/>value = [63.881, 2.91]<br/>class = 0>, fillcolor="#e68742"] ;
104 -> 105 ;
106 [label=<gini = 0.0<br/>samples = 1<br/>value = [0.0, 0.582]<br/>class = 1>, fillcolor="#399de5"] ;
105 -> 106 ;
107 [label=<PEDESTRIAN &le; 0.5<br/>gini = 0.068<br/>samples = 17<br/>value = [63.881, 2.328]<br/>class = 0>, fillcolor="#e68640"] ;
105 -> 107 ;
108 [label=<TIME &le; 790.0<br/>gini = 0.14<br/>samples = 7<br/>value = [21.294, 1.746]<br/>class = 0>, fillcolor="#e78b49"] ;
107 -> 108 ;
109 [label=<gini = 0.0<br/>samples = 1<br/>value = [0.0, 0.582]<br/>class = 1>, fillcolor="#399de5"] ;
108 -> 109 ;
110 [label=<LATITUDE &le; 43.696<br/>gini = 0.098<br/>samples = 6<br/>value = [21.294, 1.164]<br/>class = 0>, fillcolor="#e68844"] ;
108 -> 110 ;
111 [label=<YEAR &le; 2019.0<br/>gini = 0.242<br/>samples = 2<br/>value = [7.098, 1.164]<br/>class = 0>, fillcolor="#e99659"] ;
110 -> 111 ;
112 [label=<gini = 0.0<br/>samples = 1<br/>value = [0.0, 1.164]<br/>class = 1>, fillcolor="#399de5"] ;
111 -> 112 ;
113 [label=<gini = 0.0<br/>samples = 1<br/>value = [7.098, 0.0]<br/>class = 0>, fillcolor="#e58139"] ;
111 -> 113 ;
114 [label=<LONGITUDE &le; -79.383<br/>gini = 0.0<br/>samples = 4<br/>value = [14.196, 0.0]<br/>class = 0>, fillcolor="#e58139"] ;
110 -> 114 ;
115 [label=<gini = 0.0<br/>samples = 2<br/>value = [7.098, 0.0]<br/>class = 0>, fillcolor="#e58139"] ;
114 -> 115 ;
116 [label=<gini = 0.0<br/>samples = 2<br/>value = [7.098, 0.0]<br/>class = 0>, fillcolor="#e58139"] ;
114 -> 116 ;
117 [label=<INJURY &le; 3.5<br/>gini = 0.027<br/>samples = 10<br/>value = [42.587, 0.582]<br/>class = 0>, fillcolor="#e5833c"] ;
107 -> 117 ;
118 [label=<LONGITUDE &le; -79.435<br/>gini = 0.242<br/>samples = 2<br/>value = [3.549, 0.582]<br/>class = 0>, fillcolor="#e99659"] ;
117 -> 118 ;
119 [label=<gini = 0.0<br/>samples = 1<br/>value = [0.0, 0.582]<br/>class = 1>, fillcolor="#399de5"] ;
118 -> 119 ;
120 [label=<gini = 0.0<br/>samples = 1<br/>value = [3.549, 0.0]<br/>class = 0>, fillcolor="#e58139"] ;
118 -> 120 ;
121 [label=<gini = 0.0<br/>samples = 8<br/>value = [39.038, 0.0]<br/>class = 0>, fillcolor="#e58139"] ;
117 -> 121 ;
122 [label=<gini = 0.0<br/>samples = 1<br/>value = [0.0, 1.164]<br/>class = 1>, fillcolor="#399de5"] ;
104 -> 122 ;
123 [label=<gini = -0.0<br/>samples = 1<br/>value = [0.0, 1.746]<br/>class = 1>, fillcolor="#399de5"] ;
99 -> 123 ;
124 [label=<gini = -0.0<br/>samples = 1<br/>value = [0.0, 1.746]<br/>class = 1>, fillcolor="#399de5"] ;
98 -> 124 ;
125 [label=<LIGHT &le; 2.0<br/>gini = 0.287<br/>samples = 16<br/>value = [3.549, 16.878]<br/>class = 1>, fillcolor="#63b2ea"] ;
97 -> 125 ;
126 [label=<LONGITUDE &le; -79.458<br/>gini = 0.478<br/>samples = 3<br/>value = [3.549, 2.328]<br/>class = 0>, fillcolor="#f6d4bb"] ;
125 -> 126 ;
127 [label=<gini = 0.0<br/>samples = 2<br/>value = [0.0, 2.328]<br/>class = 1>, fillcolor="#399de5"] ;
126 -> 127 ;
128 [label=<gini = 0.0<br/>samples = 1<br/>value = [3.549, 0.0]<br/>class = 0>, fillcolor="#e58139"] ;
126 -> 128 ;
129 [label=<gini = 0.0<br/>samples = 13<br/>value = [0.0, 14.55]<br/>class = 1>, fillcolor="#399de5"] ;
125 -> 129 ;
130 [label=<TRUCK &le; 0.5<br/>gini = 0.5<br/>samples = 2706<br/>value = [2136.454, 2155.131]<br/>class = 1>, fillcolor="#fdfeff"] ;
2 -> 130 ;
131 [label=<DRIVCOND &le; 8.5<br/>gini = 0.5<br/>samples = 2591<br/>value = [1959.007, 2075.98]<br/>class = 1>, fillcolor="#f4f9fe"] ;
130 -> 131 ;
132 [label=<LIGHT &le; 3.5<br/>gini = 0.481<br/>samples = 1188<br/>value = [674.296, 1002.779]<br/>class = 1>, fillcolor="#bedff6"] ;
131 -> 132 ;
133 [label=<SPEEDING &le; 0.5<br/>gini = 0.495<br/>samples = 304<br/>value = [291.012, 238.618]<br/>class = 0>, fillcolor="#fae8db"] ;
132 -> 133 ;
134 [label=<DAY &le; 18.5<br/>gini = 0.499<br/>samples = 220<br/>value = [163.251, 176.927]<br/>class = 1>, fillcolor="#f0f7fd"] ;
133 -> 134 ;
135 [label=<MONTH &le; 11.5<br/>gini = 0.487<br/>samples = 140<br/>value = [141.957, 102.431]<br/>class = 0>, fillcolor="#f8dcc8"] ;
134 -> 135 ;
136 [label=<TRSN_CITY_VEH &le; 0.5<br/>gini = 0.474<br/>samples = 123<br/>value = [138.408, 86.717]<br/>class = 0>, fillcolor="#f5d0b5"] ;
135 -> 136 ;
137 [label=<ALCOHOL &le; 0.5<br/>gini = 0.471<br/>samples = 120<br/>value = [138.408, 84.389]<br/>class = 0>, fillcolor="#f5ceb2"] ;
136 -> 137 ;
138 [label=<IMPACTYPE &le; 6.5<br/>gini = 0.464<br/>samples = 108<br/>value = [131.31, 75.659]<br/>class = 0>, fillcolor="#f4caab"] ;
137 -> 138 ;
139 [label=<YEAR &le; 2011.5<br/>gini = 0.433<br/>samples = 94<br/>value = [131.31, 61.11]<br/>class = 0>, fillcolor="#f1bc95"] ;
138 -> 139 ;
140 [label=<WEEKDAY &le; 4.5<br/>gini = 0.492<br/>samples = 41<br/>value = [39.038, 30.264]<br/>class = 0>, fillcolor="#f9e3d2"] ;
139 -> 140 ;
141 [label=<MONTH &le; 8.5<br/>gini = 0.447<br/>samples = 25<br/>value = [35.489, 18.042]<br/>class = 0>, fillcolor="#f2c19e"] ;
140 -> 141 ;
142 [label=<LONGITUDE &le; -79.438<br/>gini = 0.39<br/>samples = 20<br/>value = [35.489, 12.804]<br/>class = 0>, fillcolor="#eeae80"] ;
141 -> 142 ;
143 [label=<INJURY &le; 1.5<br/>gini = 0.195<br/>samples = 9<br/>value = [28.391, 3.492]<br/>class = 0>, fillcolor="#e89051"] ;
142 -> 143 ;
144 [label=<gini = 0.0<br/>samples = 2<br/>value = [0.0, 1.746]<br/>class = 1>, fillcolor="#399de5"] ;
143 -> 144 ;
145 [label=<ROAD_CLASS &le; 6.5<br/>gini = 0.109<br/>samples = 7<br/>value = [28.391, 1.746]<br/>class = 0>, fillcolor="#e78945"] ;
143 -> 145 ;
146 [label=<ROAD_CLASS &le; 2.5<br/>gini = 0.039<br/>samples = 6<br/>value = [28.391, 0.582]<br/>class = 0>, fillcolor="#e6843d"] ;
145 -> 146 ;
147 [label=<gini = 0.0<br/>samples = 1<br/>value = [0.0, 0.582]<br/>class = 1>, fillcolor="#399de5"] ;
146 -> 147 ;
148 [label=<gini = -0.0<br/>samples = 5<br/>value = [28.391, 0.0]<br/>class = 0>, fillcolor="#e58139"] ;
146 -> 148 ;
149 [label=<gini = 0.0<br/>samples = 1<br/>value = [0.0, 1.164]<br/>class = 1>, fillcolor="#399de5"] ;
145 -> 149 ;
150 [label=<TIME &le; 1727.0<br/>gini = 0.491<br/>samples = 11<br/>value = [7.098, 9.312]<br/>class = 1>, fillcolor="#d0e8f9"] ;
142 -> 150 ;
151 [label=<gini = 0.0<br/>samples = 7<br/>value = [0.0, 6.402]<br/>class = 1>, fillcolor="#399de5"] ;
150 -> 151 ;
152 [label=<LONGITUDE &le; -79.347<br/>gini = 0.412<br/>samples = 4<br/>value = [7.098, 2.91]<br/>class = 0>, fillcolor="#f0b58a"] ;
150 -> 152 ;
153 [label=<gini = -0.0<br/>samples = 3<br/>value = [0.0, 2.91]<br/>class = 1>, fillcolor="#399de5"] ;
152 -> 153 ;
154 [label=<gini = 0.0<br/>samples = 1<br/>value = [7.098, 0.0]<br/>class = 0>, fillcolor="#e58139"] ;
152 -> 154 ;
155 [label=<ROAD_CLASS &le; 6.5<br/>gini = 0.0<br/>samples = 5<br/>value = [0.0, 5.238]<br/>class = 1>, fillcolor="#399de5"] ;
141 -> 155 ;
156 [label=<gini = 0.0<br/>samples = 4<br/>value = [0.0, 4.074]<br/>class = 1>, fillcolor="#399de5"] ;
155 -> 156 ;
157 [label=<gini = 0.0<br/>samples = 1<br/>value = [0.0, 1.164]<br/>class = 1>, fillcolor="#399de5"] ;
155 -> 157 ;
158 [label=<TIME &le; 5.5<br/>gini = 0.349<br/>samples = 16<br/>value = [3.549, 12.222]<br/>class = 1>, fillcolor="#72b9ed"] ;
140 -> 158 ;
159 [label=<gini = 0.0<br/>samples = 1<br/>value = [3.549, 0.0]<br/>class = 0>, fillcolor="#e58139"] ;
158 -> 159 ;
160 [label=<gini = 0.0<br/>samples = 15<br/>value = [0.0, 12.222]<br/>class = 1>, fillcolor="#399de5"] ;
158 -> 160 ;
161 [label=<ACCLOC &le; 3.0<br/>gini = 0.376<br/>samples = 53<br/>value = [92.272, 30.846]<br/>class = 0>, fillcolor="#eeab7b"] ;
139 -> 161 ;
162 [label=<TIME &le; 1743.5<br/>gini = 0.378<br/>samples = 14<br/>value = [3.549, 10.476]<br/>class = 1>, fillcolor="#7cbeee"] ;
161 -> 162 ;
163 [label=<gini = 0.0<br/>samples = 13<br/>value = [0.0, 10.476]<br/>class = 1>, fillcolor="#399de5"] ;
162 -> 163 ;
164 [label=<gini = 0.0<br/>samples = 1<br/>value = [3.549, 0.0]<br/>class = 0>, fillcolor="#e58139"] ;
162 -> 164 ;
165 [label=<TIME &le; 9.0<br/>gini = 0.304<br/>samples = 39<br/>value = [88.723, 20.37]<br/>class = 0>, fillcolor="#eb9e66"] ;
161 -> 165 ;
166 [label=<gini = 0.0<br/>samples = 3<br/>value = [0.0, 2.91]<br/>class = 1>, fillcolor="#399de5"] ;
165 -> 166 ;
167 [label=<WEEKDAY &le; 4.5<br/>gini = 0.275<br/>samples = 36<br/>value = [88.723, 17.46]<br/>class = 0>, fillcolor="#ea9a60"] ;
165 -> 167 ;
168 [label=<AG_DRIV &le; 0.5<br/>gini = 0.215<br/>samples = 25<br/>value = [70.979, 9.894]<br/>class = 0>, fillcolor="#e99355"] ;
167 -> 168 ;
169 [label=<INJURY &le; 2.5<br/>gini = 0.205<br/>samples = 24<br/>value = [70.979, 9.312]<br/>class = 0>, fillcolor="#e89253"] ;
168 -> 169 ;
170 [label=<DIVISION &le; 5.0<br/>gini = 0.478<br/>samples = 3<br/>value = [3.549, 2.328]<br/>class = 0>, fillcolor="#f6d4bb"] ;
169 -> 170 ;
171 [label=<gini = 0.0<br/>samples = 1<br/>value = [3.549, 0.0]<br/>class = 0>, fillcolor="#e58139"] ;
170 -> 171 ;
172 [label=<LATITUDE &le; 43.742<br/>gini = 0.0<br/>samples = 2<br/>value = [0.0, 2.328]<br/>class = 1>, fillcolor="#399de5"] ;
170 -> 172 ;
173 [label=<gini = 0.0<br/>samples = 1<br/>value = [0.0, 1.164]<br/>class = 1>, fillcolor="#399de5"] ;
172 -> 173 ;
174 [label=<gini = 0.0<br/>samples = 1<br/>value = [0.0, 1.164]<br/>class = 1>, fillcolor="#399de5"] ;
172 -> 174 ;
175 [label=<LATITUDE &le; 43.736<br/>gini = 0.17<br/>samples = 21<br/>value = [67.43, 6.984]<br/>class = 0>, fillcolor="#e88e4e"] ;
169 -> 175 ;
176 [label=<YEAR &le; 2022.5<br/>gini = 0.278<br/>samples = 13<br/>value = [31.94, 6.402]<br/>class = 0>, fillcolor="#ea9a61"] ;
175 -> 176 ;
177 [label=<WEEKDAY &le; 0.5<br/>gini = 0.222<br/>samples = 11<br/>value = [31.94, 4.656]<br/>class = 0>, fillcolor="#e99356"] ;
176 -> 177 ;
178 [label=<DAY &le; 17.5<br/>gini = 0.478<br/>samples = 3<br/>value = [3.549, 2.328]<br/>class = 0>, fillcolor="#f6d4bb"] ;
177 -> 178 ;
179 [label=<MONTH &le; 6.0<br/>gini = 0.0<br/>samples = 2<br/>value = [0.0, 2.328]<br/>class = 1>, fillcolor="#399de5"] ;
178 -> 179 ;
180 [label=<gini = 0.0<br/>samples = 1<br/>value = [0.0, 1.746]<br/>class = 1>, fillcolor="#399de5"] ;
179 -> 180 ;
181 [label=<gini = 0.0<br/>samples = 1<br/>value = [0.0, 0.582]<br/>class = 1>, fillcolor="#399de5"] ;
179 -> 181 ;
182 [label=<gini = 0.0<br/>samples = 1<br/>value = [3.549, 0.0]<br/>class = 0>, fillcolor="#e58139"] ;
178 -> 182 ;
183 [label=<MONTH &le; 9.5<br/>gini = 0.14<br/>samples = 8<br/>value = [28.391, 2.328]<br/>class = 0>, fillcolor="#e78b49"] ;
177 -> 183 ;
184 [label=<DRIVCOND &le; 7.5<br/>gini = 0.109<br/>samples = 7<br/>value = [28.391, 1.746]<br/>class = 0>, fillcolor="#e78945"] ;
183 -> 184 ;
185 [label=<LONGITUDE &le; -79.431<br/>gini = 0.076<br/>samples = 6<br/>value = [28.391, 1.164]<br/>class = 0>, fillcolor="#e68641"] ;
184 -> 185 ;
186 [label=<gini = 0.0<br/>samples = 2<br/>value = [14.196, 0.0]<br/>class = 0>, fillcolor="#e58139"] ;
185 -> 186 ;
187 [label=<LATITUDE &le; 43.667<br/>gini = 0.14<br/>samples = 4<br/>value = [14.196, 1.164]<br/>class = 0>, fillcolor="#e78b49"] ;
185 -> 187 ;
188 [label=<gini = 0.0<br/>samples = 1<br/>value = [0.0, 0.582]<br/>class = 1>, fillcolor="#399de5"] ;
187 -> 188 ;
189 [label=<WEEKDAY &le; 3.0<br/>gini = 0.076<br/>samples = 3<br/>value = [14.196, 0.582]<br/>class = 0>, fillcolor="#e68641"] ;
187 -> 189 ;
190 [label=<gini = 0.0<br/>samples = 1<br/>value = [7.098, 0.0]<br/>class = 0>, fillcolor="#e58139"] ;
189 -> 190 ;
191 [label=<DAY &le; 8.5<br/>gini = 0.14<br/>samples = 2<br/>value = [7.098, 0.582]<br/>class = 0>, fillcolor="#e78b49"] ;
189 -> 191 ;
192 [label=<gini = 0.0<br/>samples = 1<br/>value = [0.0, 0.582]<br/>class = 1>, fillcolor="#399de5"] ;
191 -> 192 ;
193 [label=<gini = 0.0<br/>samples = 1<br/>value = [7.098, 0.0]<br/>class = 0>, fillcolor="#e58139"] ;
191 -> 193 ;
194 [label=<gini = 0.0<br/>samples = 1<br/>value = [0.0, 0.582]<br/>class = 1>, fillcolor="#399de5"] ;
184 -> 194 ;
195 [label=<gini = 0.0<br/>samples = 1<br/>value = [0.0, 0.582]<br/>class = 1>, fillcolor="#399de5"] ;
183 -> 195 ;
196 [label=<LATITUDE &le; 43.676<br/>gini = 0.0<br/>samples = 2<br/>value = [0.0, 1.746]<br/>class = 1>, fillcolor="#399de5"] ;
176 -> 196 ;
197 [label=<gini = 0.0<br/>samples = 1<br/>value = [0.0, 1.164]<br/>class = 1>, fillcolor="#399de5"] ;
196 -> 197 ;
198 [label=<gini = 0.0<br/>samples = 1<br/>value = [0.0, 0.582]<br/>class = 1>, fillcolor="#399de5"] ;
196 -> 198 ;
199 [label=<TIME &le; 1726.5<br/>gini = 0.032<br/>samples = 8<br/>value = [35.489, 0.582]<br/>class = 0>, fillcolor="#e5833c"] ;
175 -> 199 ;
200 [label=<gini = -0.0<br/>samples = 7<br/>value = [35.489, 0.0]<br/>class = 0>, fillcolor="#e58139"] ;
199 -> 200 ;
201 [label=<gini = 0.0<br/>samples = 1<br/>value = [0.0, 0.582]<br/>class = 1>, fillcolor="#399de5"] ;
199 -> 201 ;
202 [label=<gini = -0.0<br/>samples = 1<br/>value = [0.0, 0.582]<br/>class = 1>, fillcolor="#399de5"] ;
168 -> 202 ;
203 [label=<LATITUDE &le; 43.776<br/>gini = 0.419<br/>samples = 11<br/>value = [17.745, 7.566]<br/>class = 0>, fillcolor="#f0b78d"] ;
167 -> 203 ;
204 [label=<ROAD_CLASS &le; 4.5<br/>gini = 0.435<br/>samples = 9<br/>value = [3.549, 7.566]<br/>class = 1>, fillcolor="#96cbf1"] ;
203 -> 204 ;
205 [label=<gini = 0.0<br/>samples = 2<br/>value = [0.0, 2.91]<br/>class = 1>, fillcolor="#399de5"] ;
204 -> 205 ;
206 [label=<DAY &le; 15.5<br/>gini = 0.491<br/>samples = 7<br/>value = [3.549, 4.656]<br/>class = 1>, fillcolor="#d0e8f9"] ;
204 -> 206 ;
207 [label=<WEEKDAY &le; 5.5<br/>gini = 0.0<br/>samples = 4<br/>value = [0.0, 3.492]<br/>class = 1>, fillcolor="#399de5"] ;
206 -> 207 ;
208 [label=<gini = 0.0<br/>samples = 2<br/>value = [0.0, 2.328]<br/>class = 1>, fillcolor="#399de5"] ;
207 -> 208 ;
209 [label=<gini = 0.0<br/>samples = 2<br/>value = [0.0, 1.164]<br/>class = 1>, fillcolor="#399de5"] ;
207 -> 209 ;
210 [label=<LATITUDE &le; 43.652<br/>gini = 0.372<br/>samples = 3<br/>value = [3.549, 1.164]<br/>class = 0>, fillcolor="#eeaa7a"] ;
206 -> 210 ;
211 [label=<gini = 0.0<br/>samples = 1<br/>value = [0.0, 0.582]<br/>class = 1>, fillcolor="#399de5"] ;
210 -> 211 ;
212 [label=<LATITUDE &le; 43.657<br/>gini = 0.242<br/>samples = 2<br/>value = [3.549, 0.582]<br/>class = 0>, fillcolor="#e99659"] ;
210 -> 212 ;
213 [label=<gini = 0.0<br/>samples = 1<br/>value = [3.549, 0.0]<br/>class = 0>, fillcolor="#e58139"] ;
212 -> 213 ;
214 [label=<gini = 0.0<br/>samples = 1<br/>value = [0.0, 0.582]<br/>class = 1>, fillcolor="#399de5"] ;
212 -> 214 ;
215 [label=<gini = 0.0<br/>samples = 2<br/>value = [14.196, 0.0]<br/>class = 0>, fillcolor="#e58139"] ;
203 -> 215 ;
216 [label=<LATITUDE &le; 43.631<br/>gini = 0.0<br/>samples = 14<br/>value = [0.0, 14.55]<br/>class = 1>, fillcolor="#399de5"] ;
138 -> 216 ;
217 [label=<gini = 0.0<br/>samples = 2<br/>value = [0.0, 1.164]<br/>class = 1>, fillcolor="#399de5"] ;
216 -> 217 ;
218 [label=<gini = 0.0<br/>samples = 12<br/>value = [0.0, 13.386]<br/>class = 1>, fillcolor="#399de5"] ;
216 -> 218 ;
219 [label=<DIVISION &le; 8.5<br/>gini = 0.495<br/>samples = 12<br/>value = [7.098, 8.73]<br/>class = 1>, fillcolor="#daedfa"] ;
137 -> 219 ;
220 [label=<gini = 0.0<br/>samples = 8<br/>value = [0.0, 6.402]<br/>class = 1>, fillcolor="#399de5"] ;
219 -> 220 ;
221 [label=<MONTH &le; 5.5<br/>gini = 0.372<br/>samples = 4<br/>value = [7.098, 2.328]<br/>class = 0>, fillcolor="#eeaa7a"] ;
219 -> 221 ;
222 [label=<gini = 0.0<br/>samples = 2<br/>value = [7.098, 0.0]<br/>class = 0>, fillcolor="#e58139"] ;
221 -> 222 ;
223 [label=<LATITUDE &le; 43.738<br/>gini = 0.0<br/>samples = 2<br/>value = [0.0, 2.328]<br/>class = 1>, fillcolor="#399de5"] ;
221 -> 223 ;
224 [label=<gini = 0.0<br/>samples = 1<br/>value = [0.0, 1.164]<br/>class = 1>, fillcolor="#399de5"] ;
223 -> 224 ;
225 [label=<gini = 0.0<br/>samples = 1<br/>value = [0.0, 1.164]<br/>class = 1>, fillcolor="#399de5"] ;
223 -> 225 ;
226 [label=<gini = -0.0<br/>samples = 3<br/>value = [0.0, 2.328]<br/>class = 1>, fillcolor="#399de5"] ;
136 -> 226 ;
227 [label=<LIGHT &le; 0.5<br/>gini = 0.301<br/>samples = 17<br/>value = [3.549, 15.714]<br/>class = 1>, fillcolor="#66b3eb"] ;
135 -> 227 ;
228 [label=<LONGITUDE &le; -79.264<br/>gini = 0.378<br/>samples = 10<br/>value = [3.549, 10.476]<br/>class = 1>, fillcolor="#7cbeee"] ;
227 -> 228 ;
229 [label=<gini = 0.0<br/>samples = 9<br/>value = [0.0, 10.476]<br/>class = 1>, fillcolor="#399de5"] ;
228 -> 229 ;
230 [label=<gini = 0.0<br/>samples = 1<br/>value = [3.549, 0.0]<br/>class = 0>, fillcolor="#e58139"] ;
228 -> 230 ;
231 [label=<TIME &le; 372.0<br/>gini = 0.0<br/>samples = 7<br/>value = [0.0, 5.238]<br/>class = 1>, fillcolor="#399de5"] ;
227 -> 231 ;
232 [label=<gini = 0.0<br/>samples = 1<br/>value = [0.0, 0.582]<br/>class = 1>, fillcolor="#399de5"] ;
231 -> 232 ;
233 [label=<gini = 0.0<br/>samples = 6<br/>value = [0.0, 4.656]<br/>class = 1>, fillcolor="#399de5"] ;
231 -> 233 ;
234 [label=<LATITUDE &le; 43.793<br/>gini = 0.346<br/>samples = 80<br/>value = [21.294, 74.495]<br/>class = 1>, fillcolor="#72b9ec"] ;
134 -> 234 ;
235 [label=<WEEKDAY &le; 5.5<br/>gini = 0.227<br/>samples = 73<br/>value = [10.647, 71.004]<br/>class = 1>, fillcolor="#57ace9"] ;
234 -> 235 ;
236 [label=<TIME &le; 628.5<br/>gini = 0.275<br/>samples = 59<br/>value = [10.647, 54.126]<br/>class = 1>, fillcolor="#60b0ea"] ;
235 -> 236 ;
237 [label=<PEDESTRIAN &le; 0.5<br/>gini = 0.0<br/>samples = 35<br/>value = [0.0, 32.01]<br/>class = 1>, fillcolor="#399de5"] ;
236 -> 237 ;
238 [label=<gini = 0.0<br/>samples = 21<br/>value = [0.0, 18.042]<br/>class = 1>, fillcolor="#399de5"] ;
237 -> 238 ;
239 [label=<gini = 0.0<br/>samples = 14<br/>value = [0.0, 13.968]<br/>class = 1>, fillcolor="#399de5"] ;
237 -> 239 ;
240 [label=<DIVISION &le; 9.5<br/>gini = 0.439<br/>samples = 24<br/>value = [10.647, 22.116]<br/>class = 1>, fillcolor="#98ccf2"] ;
236 -> 240 ;
241 [label=<PEDESTRIAN &le; 0.5<br/>gini = 0.5<br/>samples = 14<br/>value = [10.647, 11.058]<br/>class = 1>, fillcolor="#f8fbfe"] ;
240 -> 241 ;
242 [label=<gini = 0.0<br/>samples = 4<br/>value = [0.0, 4.074]<br/>class = 1>, fillcolor="#399de5"] ;
241 -> 242 ;
243 [label=<LONGITUDE &le; -79.458<br/>gini = 0.478<br/>samples = 10<br/>value = [10.647, 6.984]<br/>class = 0>, fillcolor="#f6d4bb"] ;
241 -> 243 ;
244 [label=<gini = 0.0<br/>samples = 5<br/>value = [0.0, 5.238]<br/>class = 1>, fillcolor="#399de5"] ;
243 -> 244 ;
245 [label=<WEEKDAY &le; 0.5<br/>gini = 0.242<br/>samples = 5<br/>value = [10.647, 1.746]<br/>class = 0>, fillcolor="#e99659"] ;
243 -> 245 ;
246 [label=<gini = 0.0<br/>samples = 1<br/>value = [0.0, 0.582]<br/>class = 1>, fillcolor="#399de5"] ;
245 -> 246 ;
247 [label=<MONTH &le; 6.0<br/>gini = 0.178<br/>samples = 4<br/>value = [10.647, 1.164]<br/>class = 0>, fillcolor="#e88f4f"] ;
245 -> 247 ;
248 [label=<YEAR &le; 2017.5<br/>gini = 0.372<br/>samples = 2<br/>value = [3.549, 1.164]<br/>class = 0>, fillcolor="#eeaa7a"] ;
247 -> 248 ;
249 [label=<gini = 0.0<br/>samples = 1<br/>value = [3.549, 0.0]<br/>class = 0>, fillcolor="#e58139"] ;
248 -> 249 ;
250 [label=<gini = 0.0<br/>samples = 1<br/>value = [0.0, 1.164]<br/>class = 1>, fillcolor="#399de5"] ;
248 -> 250 ;
251 [label=<MONTH &le; 11.5<br/>gini = 0.0<br/>samples = 2<br/>value = [7.098, 0.0]<br/>class = 0>, fillcolor="#e58139"] ;
247 -> 251 ;
252 [label=<gini = 0.0<br/>samples = 1<br/>value = [3.549, 0.0]<br/>class = 0>, fillcolor="#e58139"] ;
251 -> 252 ;
253 [label=<gini = 0.0<br/>samples = 1<br/>value = [3.549, 0.0]<br/>class = 0>, fillcolor="#e58139"] ;
251 -> 253 ;
254 [label=<gini = -0.0<br/>samples = 10<br/>value = [0.0, 11.058]<br/>class = 1>, fillcolor="#399de5"] ;
240 -> 254 ;
255 [label=<gini = -0.0<br/>samples = 14<br/>value = [0.0, 16.878]<br/>class = 1>, fillcolor="#399de5"] ;
235 -> 255 ;
256 [label=<YEAR &le; 2016.0<br/>gini = 0.372<br/>samples = 7<br/>value = [10.647, 3.492]<br/>class = 0>, fillcolor="#eeaa7a"] ;
234 -> 256 ;
257 [label=<LONGITUDE &le; -79.205<br/>gini = 0.242<br/>samples = 5<br/>value = [10.647, 1.746]<br/>class = 0>, fillcolor="#e99659"] ;
256 -> 257 ;
258 [label=<INJURY &le; 4.0<br/>gini = 0.178<br/>samples = 4<br/>value = [10.647, 1.164]<br/>class = 0>, fillcolor="#e88f4f"] ;
257 -> 258 ;
259 [label=<gini = 0.0<br/>samples = 1<br/>value = [3.549, 0.0]<br/>class = 0>, fillcolor="#e58139"] ;
258 -> 259 ;
260 [label=<AG_DRIV &le; 0.5<br/>gini = 0.242<br/>samples = 3<br/>value = [7.098, 1.164]<br/>class = 0>, fillcolor="#e99659"] ;
258 -> 260 ;
261 [label=<LIGHT &le; 0.5<br/>gini = 0.0<br/>samples = 2<br/>value = [7.098, 0.0]<br/>class = 0>, fillcolor="#e58139"] ;
260 -> 261 ;
262 [label=<gini = 0.0<br/>samples = 1<br/>value = [3.549, 0.0]<br/>class = 0>, fillcolor="#e58139"] ;
261 -> 262 ;
263 [label=<gini = 0.0<br/>samples = 1<br/>value = [3.549, 0.0]<br/>class = 0>, fillcolor="#e58139"] ;
261 -> 263 ;
264 [label=<gini = 0.0<br/>samples = 1<br/>value = [0.0, 1.164]<br/>class = 1>, fillcolor="#399de5"] ;
260 -> 264 ;
265 [label=<gini = 0.0<br/>samples = 1<br/>value = [0.0, 0.582]<br/>class = 1>, fillcolor="#399de5"] ;
257 -> 265 ;
266 [label=<gini = 0.0<br/>samples = 2<br/>value = [0.0, 1.746]<br/>class = 1>, fillcolor="#399de5"] ;
256 -> 266 ;
267 [label=<DIVISION &le; 14.5<br/>gini = 0.439<br/>samples = 84<br/>value = [127.761, 61.692]<br/>class = 0>, fillcolor="#f2be99"] ;
133 -> 267 ;
268 [label=<MONTH &le; 9.5<br/>gini = 0.412<br/>samples = 73<br/>value = [127.761, 52.38]<br/>class = 0>, fillcolor="#f0b58a"] ;
267 -> 268 ;
269 [label=<IMPACTYPE &le; 0.5<br/>gini = 0.359<br/>samples = 57<br/>value = [110.017, 33.756]<br/>class = 0>, fillcolor="#eda876"] ;
268 -> 269 ;
270 [label=<gini = 0.0<br/>samples = 2<br/>value = [0.0, 1.746]<br/>class = 1>, fillcolor="#399de5"] ;
269 -> 270 ;
271 [label=<PASSENGER &le; 0.5<br/>gini = 0.349<br/>samples = 55<br/>value = [110.017, 32.01]<br/>class = 0>, fillcolor="#eda673"] ;
269 -> 271 ;
272 [label=<TIME &le; 37.0<br/>gini = 0.232<br/>samples = 22<br/>value = [60.332, 9.312]<br/>class = 0>, fillcolor="#e99458"] ;
271 -> 272 ;
273 [label=<gini = 0.0<br/>samples = 1<br/>value = [0.0, 0.582]<br/>class = 1>, fillcolor="#399de5"] ;
272 -> 273 ;
274 [label=<ROAD_CLASS &le; 2.0<br/>gini = 0.221<br/>samples = 21<br/>value = [60.332, 8.73]<br/>class = 0>, fillcolor="#e99356"] ;
272 -> 274 ;
275 [label=<gini = 0.0<br/>samples = 1<br/>value = [0.0, 1.164]<br/>class = 1>, fillcolor="#399de5"] ;
274 -> 275 ;
276 [label=<DIVISION &le; 6.5<br/>gini = 0.198<br/>samples = 20<br/>value = [60.332, 7.566]<br/>class = 0>, fillcolor="#e89152"] ;
274 -> 276 ;
277 [label=<INJURY &le; 0.5<br/>gini = 0.272<br/>samples = 17<br/>value = [39.038, 7.566]<br/>class = 0>, fillcolor="#ea995f"] ;
276 -> 277 ;
278 [label=<gini = 0.0<br/>samples = 6<br/>value = [24.842, 0.0]<br/>class = 0>, fillcolor="#e58139"] ;
277 -> 278 ;
279 [label=<TIME &le; 522.0<br/>gini = 0.454<br/>samples = 11<br/>value = [14.196, 7.566]<br/>class = 0>, fillcolor="#f3c4a3"] ;
277 -> 279 ;
280 [label=<INJURY &le; 1.5<br/>gini = 0.394<br/>samples = 9<br/>value = [14.196, 5.238]<br/>class = 0>, fillcolor="#efaf82"] ;
279 -> 280 ;
281 [label=<gini = -0.0<br/>samples = 6<br/>value = [0.0, 5.238]<br/>class = 1>, fillcolor="#399de5"] ;
280 -> 281 ;
282 [label=<TIME &le; 273.5<br/>gini = 0.0<br/>samples = 3<br/>value = [14.196, 0.0]<br/>class = 0>, fillcolor="#e58139"] ;
280 -> 282 ;
283 [label=<gini = 0.0<br/>samples = 1<br/>value = [3.549, 0.0]<br/>class = 0>, fillcolor="#e58139"] ;
282 -> 283 ;
284 [label=<gini = 0.0<br/>samples = 2<br/>value = [10.647, 0.0]<br/>class = 0>, fillcolor="#e58139"] ;
282 -> 284 ;
285 [label=<gini = 0.0<br/>samples = 2<br/>value = [0.0, 2.328]<br/>class = 1>, fillcolor="#399de5"] ;
279 -> 285 ;
286 [label=<YEAR &le; 2011.0<br/>gini = 0.0<br/>samples = 3<br/>value = [21.294, 0.0]<br/>class = 0>, fillcolor="#e58139"] ;
276 -> 286 ;
287 [label=<gini = 0.0<br/>samples = 1<br/>value = [7.098, 0.0]<br/>class = 0>, fillcolor="#e58139"] ;
286 -> 287 ;
288 [label=<gini = 0.0<br/>samples = 2<br/>value = [14.196, 0.0]<br/>class = 0>, fillcolor="#e58139"] ;
286 -> 288 ;
289 [label=<MONTH &le; 2.5<br/>gini = 0.43<br/>samples = 33<br/>value = [49.685, 22.698]<br/>class = 0>, fillcolor="#f1bb93"] ;
271 -> 289 ;
290 [label=<gini = 0.0<br/>samples = 7<br/>value = [0.0, 6.984]<br/>class = 1>, fillcolor="#399de5"] ;
289 -> 290 ;
291 [label=<MONTH &le; 5.5<br/>gini = 0.365<br/>samples = 26<br/>value = [49.685, 15.714]<br/>class = 0>, fillcolor="#eda978"] ;
289 -> 291 ;
292 [label=<IMPACTYPE &le; 3.0<br/>gini = 0.483<br/>samples = 15<br/>value = [17.745, 12.222]<br/>class = 0>, fillcolor="#f7d8c1"] ;
291 -> 292 ;
293 [label=<gini = 0.0<br/>samples = 4<br/>value = [0.0, 5.82]<br/>class = 1>, fillcolor="#399de5"] ;
292 -> 293 ;
294 [label=<LATITUDE &le; 43.749<br/>gini = 0.39<br/>samples = 11<br/>value = [17.745, 6.402]<br/>class = 0>, fillcolor="#eeae80"] ;
292 -> 294 ;
295 [label=<YEAR &le; 2018.5<br/>gini = 0.304<br/>samples = 7<br/>value = [17.745, 4.074]<br/>class = 0>, fillcolor="#eb9e66"] ;
294 -> 295 ;
296 [label=<ALCOHOL &le; 0.5<br/>gini = 0.242<br/>samples = 6<br/>value = [17.745, 2.91]<br/>class = 0>, fillcolor="#e99659"] ;
295 -> 296 ;
297 [label=<YEAR &le; 2017.5<br/>gini = 0.495<br/>samples = 4<br/>value = [3.549, 2.91]<br/>class = 0>, fillcolor="#fae8db"] ;
296 -> 297 ;
298 [label=<LONGITUDE &le; -79.45<br/>gini = 0.0<br/>samples = 3<br/>value = [0.0, 2.91]<br/>class = 1>, fillcolor="#399de5"] ;
297 -> 298 ;
299 [label=<gini = 0.0<br/>samples = 1<br/>value = [0.0, 0.582]<br/>class = 1>, fillcolor="#399de5"] ;
298 -> 299 ;
300 [label=<gini = 0.0<br/>samples = 2<br/>value = [0.0, 2.328]<br/>class = 1>, fillcolor="#399de5"] ;
298 -> 300 ;
301 [label=<gini = 0.0<br/>samples = 1<br/>value = [3.549, 0.0]<br/>class = 0>, fillcolor="#e58139"] ;
297 -> 301 ;
302 [label=<gini = 0.0<br/>samples = 2<br/>value = [14.196, 0.0]<br/>class = 0>, fillcolor="#e58139"] ;
296 -> 302 ;
303 [label=<gini = 0.0<br/>samples = 1<br/>value = [0.0, 1.164]<br/>class = 1>, fillcolor="#399de5"] ;
295 -> 303 ;
304 [label=<DAY &le; 22.5<br/>gini = 0.0<br/>samples = 4<br/>value = [0.0, 2.328]<br/>class = 1>, fillcolor="#399de5"] ;
294 -> 304 ;
305 [label=<gini = 0.0<br/>samples = 1<br/>value = [0.0, 0.582]<br/>class = 1>, fillcolor="#399de5"] ;
304 -> 305 ;
306 [label=<gini = 0.0<br/>samples = 3<br/>value = [0.0, 1.746]<br/>class = 1>, fillcolor="#399de5"] ;
304 -> 306 ;
307 [label=<DAY &le; 3.0<br/>gini = 0.178<br/>samples = 11<br/>value = [31.94, 3.492]<br/>class = 0>, fillcolor="#e88f4f"] ;
291 -> 307 ;
308 [label=<gini = 0.0<br/>samples = 1<br/>value = [0.0, 1.164]<br/>class = 1>, fillcolor="#399de5"] ;
307 -> 308 ;
309 [label=<ROAD_CLASS &le; 4.5<br/>gini = 0.127<br/>samples = 10<br/>value = [31.94, 2.328]<br/>class = 0>, fillcolor="#e78a47"] ;
307 -> 309 ;
310 [label=<gini = 0.0<br/>samples = 3<br/>value = [0.0, 1.746]<br/>class = 1>, fillcolor="#399de5"] ;
309 -> 310 ;
311 [label=<LONGITUDE &le; -79.425<br/>gini = 0.035<br/>samples = 7<br/>value = [31.94, 0.582]<br/>class = 0>, fillcolor="#e5833d"] ;
309 -> 311 ;
312 [label=<ACCLOC &le; 3.0<br/>gini = 0.14<br/>samples = 2<br/>value = [7.098, 0.582]<br/>class = 0>, fillcolor="#e78b49"] ;
311 -> 312 ;
313 [label=<gini = 0.0<br/>samples = 1<br/>value = [7.098, 0.0]<br/>class = 0>, fillcolor="#e58139"] ;
312 -> 313 ;
314 [label=<gini = 0.0<br/>samples = 1<br/>value = [0.0, 0.582]<br/>class = 1>, fillcolor="#399de5"] ;
312 -> 314 ;
315 [label=<YEAR &le; 2012.0<br/>gini = 0.0<br/>samples = 5<br/>value = [24.842, 0.0]<br/>class = 0>, fillcolor="#e58139"] ;
311 -> 315 ;
316 [label=<gini = 0.0<br/>samples = 1<br/>value = [7.098, 0.0]<br/>class = 0>, fillcolor="#e58139"] ;
315 -> 316 ;
317 [label=<gini = 0.0<br/>samples = 4<br/>value = [17.745, 0.0]<br/>class = 0>, fillcolor="#e58139"] ;
315 -> 317 ;
318 [label=<DAY &le; 22.5<br/>gini = 0.5<br/>samples = 16<br/>value = [17.745, 18.624]<br/>class = 1>, fillcolor="#f6fafe"] ;
268 -> 318 ;
319 [label=<DAY &le; 10.5<br/>gini = 0.467<br/>samples = 10<br/>value = [17.745, 10.476]<br/>class = 0>, fillcolor="#f4cbae"] ;
318 -> 319 ;
320 [label=<gini = 0.0<br/>samples = 5<br/>value = [0.0, 6.984]<br/>class = 1>, fillcolor="#399de5"] ;
319 -> 320 ;
321 [label=<LONGITUDE &le; -79.287<br/>gini = 0.275<br/>samples = 5<br/>value = [17.745, 3.492]<br/>class = 0>, fillcolor="#ea9a60"] ;
319 -> 321 ;
322 [label=<LIGHT &le; 0.5<br/>gini = 0.061<br/>samples = 4<br/>value = [17.745, 0.582]<br/>class = 0>, fillcolor="#e6853f"] ;
321 -> 322 ;
323 [label=<gini = 0.0<br/>samples = 1<br/>value = [0.0, 0.582]<br/>class = 1>, fillcolor="#399de5"] ;
322 -> 323 ;
324 [label=<gini = 0.0<br/>samples = 3<br/>value = [17.745, 0.0]<br/>class = 0>, fillcolor="#e58139"] ;
322 -> 324 ;
325 [label=<gini = 0.0<br/>samples = 1<br/>value = [0.0, 2.91]<br/>class = 1>, fillcolor="#399de5"] ;
321 -> 325 ;
326 [label=<ACCLOC &le; 2.0<br/>gini = 0.0<br/>samples = 6<br/>value = [0.0, 8.148]<br/>class = 1>, fillcolor="#399de5"] ;
318 -> 326 ;
327 [label=<gini = 0.0<br/>samples = 1<br/>value = [0.0, 2.328]<br/>class = 1>, fillcolor="#399de5"] ;
326 -> 327 ;
328 [label=<gini = 0.0<br/>samples = 5<br/>value = [0.0, 5.82]<br/>class = 1>, fillcolor="#399de5"] ;
326 -> 328 ;
329 [label=<gini = -0.0<br/>samples = 11<br/>value = [0.0, 9.312]<br/>class = 1>, fillcolor="#399de5"] ;
267 -> 329 ;
330 [label=<PEDESTRIAN &le; 0.5<br/>gini = 0.445<br/>samples = 884<br/>value = [383.284, 764.161]<br/>class = 1>, fillcolor="#9ccef2"] ;
132 -> 330 ;
331 [label=<ROAD_CLASS &le; 6.5<br/>gini = 0.352<br/>samples = 643<br/>value = [170.348, 576.758]<br/>class = 1>, fillcolor="#73baed"] ;
330 -> 331 ;
332 [label=<LIGHT &le; 4.5<br/>gini = 0.306<br/>samples = 506<br/>value = [106.468, 458.031]<br/>class = 1>, fillcolor="#67b4eb"] ;
331 -> 332 ;
333 [label=<WEEKDAY &le; 3.5<br/>gini = 0.311<br/>samples = 491<br/>value = [106.468, 446.973]<br/>class = 1>, fillcolor="#68b4eb"] ;
332 -> 333 ;
334 [label=<INJURY &le; 0.5<br/>gini = 0.368<br/>samples = 296<br/>value = [85.174, 265.39]<br/>class = 1>, fillcolor="#79bced"] ;
333 -> 334 ;
335 [label=<gini = 0.0<br/>samples = 6<br/>value = [39.038, 0.0]<br/>class = 0>, fillcolor="#e58139"] ;
334 -> 335 ;
336 [label=<IMPACTYPE &le; 5.5<br/>gini = 0.252<br/>samples = 290<br/>value = [46.136, 265.39]<br/>class = 1>, fillcolor="#5baeea"] ;
334 -> 336 ;
337 [label=<DRIVCOND &le; 6.5<br/>gini = 0.114<br/>samples = 180<br/>value = [10.647, 165.287]<br/>class = 1>, fillcolor="#46a3e7"] ;
336 -> 337 ;
338 [label=<gini = 0.0<br/>samples = 53<br/>value = [0.0, 54.708]<br/>class = 1>, fillcolor="#399de5"] ;
337 -> 338 ;
339 [label=<SPEEDING &le; 0.5<br/>gini = 0.16<br/>samples = 127<br/>value = [10.647, 110.579]<br/>class = 1>, fillcolor="#4ca6e8"] ;
337 -> 339 ;
340 [label=<DIVISION &le; 4.5<br/>gini = 0.185<br/>samples = 106<br/>value = [10.647, 92.537]<br/>class = 1>, fillcolor="#50a8e8"] ;
339 -> 340 ;
341 [label=<WEEKDAY &le; 1.5<br/>gini = 0.349<br/>samples = 30<br/>value = [7.098, 24.444]<br/>class = 1>, fillcolor="#72b9ed"] ;
340 -> 341 ;
342 [label=<gini = 0.0<br/>samples = 14<br/>value = [0.0, 13.968]<br/>class = 1>, fillcolor="#399de5"] ;
341 -> 342 ;
343 [label=<WEEKDAY &le; 2.5<br/>gini = 0.482<br/>samples = 16<br/>value = [7.098, 10.476]<br/>class = 1>, fillcolor="#bfdff7"] ;
341 -> 343 ;
344 [label=<DIVISION &le; 1.5<br/>gini = 0.495<br/>samples = 11<br/>value = [7.098, 5.82]<br/>class = 0>, fillcolor="#fae8db"] ;
343 -> 344 ;
345 [label=<gini = 0.0<br/>samples = 7<br/>value = [0.0, 4.656]<br/>class = 1>, fillcolor="#399de5"] ;
344 -> 345 ;
346 [label=<ACCLOC &le; 3.0<br/>gini = 0.242<br/>samples = 4<br/>value = [7.098, 1.164]<br/>class = 0>, fillcolor="#e99659"] ;
344 -> 346 ;
347 [label=<gini = 0.0<br/>samples = 1<br/>value = [0.0, 0.582]<br/>class = 1>, fillcolor="#399de5"] ;
346 -> 347 ;
348 [label=<LONGITUDE &le; -79.435<br/>gini = 0.14<br/>samples = 3<br/>value = [7.098, 0.582]<br/>class = 0>, fillcolor="#e78b49"] ;
346 -> 348 ;
349 [label=<DIVISION &le; 3.0<br/>gini = 0.0<br/>samples = 2<br/>value = [7.098, 0.0]<br/>class = 0>, fillcolor="#e58139"] ;
348 -> 349 ;
350 [label=<gini = 0.0<br/>samples = 1<br/>value = [3.549, 0.0]<br/>class = 0>, fillcolor="#e58139"] ;
349 -> 350 ;
351 [label=<gini = 0.0<br/>samples = 1<br/>value = [3.549, 0.0]<br/>class = 0>, fillcolor="#e58139"] ;
349 -> 351 ;
352 [label=<gini = 0.0<br/>samples = 1<br/>value = [0.0, 0.582]<br/>class = 1>, fillcolor="#399de5"] ;
348 -> 352 ;
353 [label=<INJURY &le; 2.0<br/>gini = 0.0<br/>samples = 5<br/>value = [0.0, 4.656]<br/>class = 1>, fillcolor="#399de5"] ;
343 -> 353 ;
354 [label=<gini = 0.0<br/>samples = 3<br/>value = [0.0, 1.746]<br/>class = 1>, fillcolor="#399de5"] ;
353 -> 354 ;
355 [label=<gini = 0.0<br/>samples = 2<br/>value = [0.0, 2.91]<br/>class = 1>, fillcolor="#399de5"] ;
353 -> 355 ;
356 [label=<DAY &le; 21.5<br/>gini = 0.094<br/>samples = 76<br/>value = [3.549, 68.094]<br/>class = 1>, fillcolor="#43a2e6"] ;
340 -> 356 ;
357 [label=<gini = -0.0<br/>samples = 48<br/>value = [0.0, 44.232]<br/>class = 1>, fillcolor="#399de5"] ;
356 -> 357 ;
358 [label=<MONTH &le; 5.5<br/>gini = 0.225<br/>samples = 28<br/>value = [3.549, 23.862]<br/>class = 1>, fillcolor="#56ace9"] ;
356 -> 358 ;
359 [label=<LONGITUDE &le; -79.396<br/>gini = 0.4<br/>samples = 12<br/>value = [3.549, 9.312]<br/>class = 1>, fillcolor="#84c2ef"] ;
358 -> 359 ;
360 [label=<LATITUDE &le; 43.731<br/>gini = 0.442<br/>samples = 3<br/>value = [3.549, 1.746]<br/>class = 0>, fillcolor="#f2bf9a"] ;
359 -> 360 ;
361 [label=<gini = 0.0<br/>samples = 1<br/>value = [3.549, 0.0]<br/>class = 0>, fillcolor="#e58139"] ;
360 -> 361 ;
362 [label=<IMPACTYPE &le; 3.5<br/>gini = 0.0<br/>samples = 2<br/>value = [0.0, 1.746]<br/>class = 1>, fillcolor="#399de5"] ;
360 -> 362 ;
363 [label=<gini = 0.0<br/>samples = 1<br/>value = [0.0, 1.164]<br/>class = 1>, fillcolor="#399de5"] ;
362 -> 363 ;
364 [label=<gini = 0.0<br/>samples = 1<br/>value = [0.0, 0.582]<br/>class = 1>, fillcolor="#399de5"] ;
362 -> 364 ;
365 [label=<gini = 0.0<br/>samples = 9<br/>value = [0.0, 7.566]<br/>class = 1>, fillcolor="#399de5"] ;
359 -> 365 ;
366 [label=<gini = 0.0<br/>samples = 16<br/>value = [0.0, 14.55]<br/>class = 1>, fillcolor="#399de5"] ;
358 -> 366 ;
367 [label=<gini = 0.0<br/>samples = 21<br/>value = [0.0, 18.042]<br/>class = 1>, fillcolor="#399de5"] ;
339 -> 367 ;
368 [label=<SPEEDING &le; 0.5<br/>gini = 0.386<br/>samples = 110<br/>value = [35.489, 100.103]<br/>class = 1>, fillcolor="#7fc0ee"] ;
336 -> 368 ;
369 [label=<TIME &le; 937.5<br/>gini = 0.278<br/>samples = 95<br/>value = [17.745, 88.463]<br/>class = 1>, fillcolor="#61b1ea"] ;
368 -> 369 ;
370 [label=<ACCLOC &le; 2.0<br/>gini = 0.499<br/>samples = 19<br/>value = [14.196, 15.714]<br/>class = 1>, fillcolor="#ecf6fc"] ;
369 -> 370 ;
371 [label=<AG_DRIV &le; 0.5<br/>gini = 0.394<br/>samples = 8<br/>value = [14.196, 5.238]<br/>class = 0>, fillcolor="#efaf82"] ;
370 -> 371 ;
372 [label=<TIME &le; 871.0<br/>gini = 0.076<br/>samples = 4<br/>value = [14.196, 0.582]<br/>class = 0>, fillcolor="#e68641"] ;
371 -> 372 ;
373 [label=<gini = 0.0<br/>samples = 1<br/>value = [0.0, 0.582]<br/>class = 1>, fillcolor="#399de5"] ;
372 -> 373 ;
374 [label=<gini = 0.0<br/>samples = 3<br/>value = [14.196, 0.0]<br/>class = 0>, fillcolor="#e58139"] ;
372 -> 374 ;
375 [label=<gini = 0.0<br/>samples = 4<br/>value = [0.0, 4.656]<br/>class = 1>, fillcolor="#399de5"] ;
371 -> 375 ;
376 [label=<IMPACTYPE &le; 6.5<br/>gini = 0.0<br/>samples = 11<br/>value = [0.0, 10.476]<br/>class = 1>, fillcolor="#399de5"] ;
370 -> 376 ;
377 [label=<gini = 0.0<br/>samples = 3<br/>value = [0.0, 2.328]<br/>class = 1>, fillcolor="#399de5"] ;
376 -> 377 ;
378 [label=<gini = 0.0<br/>samples = 8<br/>value = [0.0, 8.148]<br/>class = 1>, fillcolor="#399de5"] ;
376 -> 378 ;
379 [label=<LATITUDE &le; 43.753<br/>gini = 0.089<br/>samples = 76<br/>value = [3.549, 72.75]<br/>class = 1>, fillcolor="#43a2e6"] ;
369 -> 379 ;
380 [label=<gini = 0.0<br/>samples = 54<br/>value = [0.0, 52.38]<br/>class = 1>, fillcolor="#399de5"] ;
379 -> 380 ;
381 [label=<ACCLOC &le; 4.5<br/>gini = 0.253<br/>samples = 22<br/>value = [3.549, 20.37]<br/>class = 1>, fillcolor="#5baeea"] ;
379 -> 381 ;
382 [label=<gini = 0.0<br/>samples = 10<br/>value = [0.0, 10.476]<br/>class = 1>, fillcolor="#399de5"] ;
381 -> 382 ;
383 [label=<TIME &le; 1643.5<br/>gini = 0.389<br/>samples = 12<br/>value = [3.549, 9.894]<br/>class = 1>, fillcolor="#80c0ee"] ;
381 -> 383 ;
384 [label=<gini = 0.0<br/>samples = 11<br/>value = [0.0, 9.894]<br/>class = 1>, fillcolor="#399de5"] ;
383 -> 384 ;
385 [label=<gini = 0.0<br/>samples = 1<br/>value = [3.549, 0.0]<br/>class = 0>, fillcolor="#e58139"] ;
383 -> 385 ;
386 [label=<WEEKDAY &le; 1.5<br/>gini = 0.478<br/>samples = 15<br/>value = [17.745, 11.64]<br/>class = 0>, fillcolor="#f6d4bb"] ;
368 -> 386 ;
387 [label=<gini = -0.0<br/>samples = 10<br/>value = [0.0, 8.73]<br/>class = 1>, fillcolor="#399de5"] ;
386 -> 387 ;
388 [label=<DIVISION &le; 10.5<br/>gini = 0.242<br/>samples = 5<br/>value = [17.745, 2.91]<br/>class = 0>, fillcolor="#e99659"] ;
386 -> 388 ;
389 [label=<MOTORCYCLE &le; 0.5<br/>gini = 0.495<br/>samples = 3<br/>value = [3.549, 2.91]<br/>class = 0>, fillcolor="#fae8db"] ;
388 -> 389 ;
390 [label=<INJURY &le; 3.0<br/>gini = 0.0<br/>samples = 2<br/>value = [0.0, 2.91]<br/>class = 1>, fillcolor="#399de5"] ;
389 -> 390 ;
391 [label=<gini = 0.0<br/>samples = 1<br/>value = [0.0, 1.746]<br/>class = 1>, fillcolor="#399de5"] ;
390 -> 391 ;
392 [label=<gini = 0.0<br/>samples = 1<br/>value = [0.0, 1.164]<br/>class = 1>, fillcolor="#399de5"] ;
390 -> 392 ;
393 [label=<gini = 0.0<br/>samples = 1<br/>value = [3.549, 0.0]<br/>class = 0>, fillcolor="#e58139"] ;
389 -> 393 ;
394 [label=<gini = 0.0<br/>samples = 2<br/>value = [14.196, 0.0]<br/>class = 0>, fillcolor="#e58139"] ;
388 -> 394 ;
395 [label=<ROAD_CLASS &le; 4.5<br/>gini = 0.188<br/>samples = 195<br/>value = [21.294, 181.583]<br/>class = 1>, fillcolor="#50a8e8"] ;
333 -> 395 ;
396 [label=<gini = 0.0<br/>samples = 29<br/>value = [0.0, 30.264]<br/>class = 1>, fillcolor="#399de5"] ;
395 -> 396 ;
397 [label=<DAY &le; 10.5<br/>gini = 0.216<br/>samples = 166<br/>value = [21.294, 151.319]<br/>class = 1>, fillcolor="#55abe9"] ;
395 -> 397 ;
398 [label=<WEEKDAY &le; 5.5<br/>gini = 0.411<br/>samples = 54<br/>value = [17.745, 43.65]<br/>class = 1>, fillcolor="#89c5f0"] ;
397 -> 398 ;
399 [label=<YEAR &le; 2006.5<br/>gini = 0.477<br/>samples = 35<br/>value = [17.745, 27.354]<br/>class = 1>, fillcolor="#b9ddf6"] ;
398 -> 399 ;
400 [label=<SPEEDING &le; 0.5<br/>gini = 0.442<br/>samples = 5<br/>value = [7.098, 3.492]<br/>class = 0>, fillcolor="#f2bf9a"] ;
399 -> 400 ;
401 [label=<PASSENGER &le; 0.5<br/>gini = 0.412<br/>samples = 4<br/>value = [7.098, 2.91]<br/>class = 0>, fillcolor="#f0b58a"] ;
400 -> 401 ;
402 [label=<gini = -0.0<br/>samples = 3<br/>value = [0.0, 2.91]<br/>class = 1>, fillcolor="#399de5"] ;
401 -> 402 ;
403 [label=<gini = 0.0<br/>samples = 1<br/>value = [7.098, 0.0]<br/>class = 0>, fillcolor="#e58139"] ;
401 -> 403 ;
404 [label=<gini = 0.0<br/>samples = 1<br/>value = [0.0, 0.582]<br/>class = 1>, fillcolor="#399de5"] ;
400 -> 404 ;
405 [label=<DAY &le; 8.5<br/>gini = 0.427<br/>samples = 30<br/>value = [10.647, 23.862]<br/>class = 1>, fillcolor="#91c9f1"] ;
399 -> 405 ;
406 [label=<LONGITUDE &le; -79.283<br/>gini = 0.482<br/>samples = 21<br/>value = [10.647, 15.714]<br/>class = 1>, fillcolor="#bfdff7"] ;
405 -> 406 ;
407 [label=<IMPACTYPE &le; 5.5<br/>gini = 0.495<br/>samples = 13<br/>value = [10.647, 8.73]<br/>class = 0>, fillcolor="#fae8db"] ;
406 -> 407 ;
408 [label=<gini = 0.0<br/>samples = 3<br/>value = [0.0, 3.492]<br/>class = 1>, fillcolor="#399de5"] ;
407 -> 408 ;
409 [label=<MONTH &le; 5.5<br/>gini = 0.442<br/>samples = 10<br/>value = [10.647, 5.238]<br/>class = 0>, fillcolor="#f2bf9a"] ;
407 -> 409 ;
410 [label=<gini = 0.0<br/>samples = 4<br/>value = [0.0, 3.492]<br/>class = 1>, fillcolor="#399de5"] ;
409 -> 410 ;
411 [label=<LONGITUDE &le; -79.496<br/>gini = 0.242<br/>samples = 6<br/>value = [10.647, 1.746]<br/>class = 0>, fillcolor="#e99659"] ;
409 -> 411 ;
412 [label=<gini = 0.0<br/>samples = 3<br/>value = [0.0, 1.746]<br/>class = 1>, fillcolor="#399de5"] ;
411 -> 412 ;
413 [label=<gini = 0.0<br/>samples = 3<br/>value = [10.647, 0.0]<br/>class = 0>, fillcolor="#e58139"] ;
411 -> 413 ;
414 [label=<VISIBILITY &le; 2.5<br/>gini = 0.0<br/>samples = 8<br/>value = [0.0, 6.984]<br/>class = 1>, fillcolor="#399de5"] ;
406 -> 414 ;
415 [label=<gini = 0.0<br/>samples = 5<br/>value = [0.0, 4.074]<br/>class = 1>, fillcolor="#399de5"] ;
414 -> 415 ;
416 [label=<gini = 0.0<br/>samples = 3<br/>value = [0.0, 2.91]<br/>class = 1>, fillcolor="#399de5"] ;
414 -> 416 ;
417 [label=<INJURY &le; 2.0<br/>gini = 0.0<br/>samples = 9<br/>value = [0.0, 8.148]<br/>class = 1>, fillcolor="#399de5"] ;
405 -> 417 ;
418 [label=<gini = 0.0<br/>samples = 5<br/>value = [0.0, 4.074]<br/>class = 1>, fillcolor="#399de5"] ;
417 -> 418 ;
419 [label=<gini = 0.0<br/>samples = 4<br/>value = [0.0, 4.074]<br/>class = 1>, fillcolor="#399de5"] ;
417 -> 419 ;
420 [label=<VISIBILITY &le; 3.0<br/>gini = 0.0<br/>samples = 19<br/>value = [0.0, 16.296]<br/>class = 1>, fillcolor="#399de5"] ;
398 -> 420 ;
421 [label=<gini = 0.0<br/>samples = 17<br/>value = [0.0, 14.55]<br/>class = 1>, fillcolor="#399de5"] ;
420 -> 421 ;
422 [label=<gini = 0.0<br/>samples = 2<br/>value = [0.0, 1.746]<br/>class = 1>, fillcolor="#399de5"] ;
420 -> 422 ;
423 [label=<IMPACTYPE &le; 1.5<br/>gini = 0.062<br/>samples = 112<br/>value = [3.549, 107.669]<br/>class = 1>, fillcolor="#40a0e6"] ;
397 -> 423 ;
424 [label=<LONGITUDE &le; -79.257<br/>gini = 0.368<br/>samples = 13<br/>value = [3.549, 11.058]<br/>class = 1>, fillcolor="#79bced"] ;
423 -> 424 ;
425 [label=<gini = 0.0<br/>samples = 11<br/>value = [0.0, 9.894]<br/>class = 1>, fillcolor="#399de5"] ;
424 -> 425 ;
426 [label=<LONGITUDE &le; -79.237<br/>gini = 0.372<br/>samples = 2<br/>value = [3.549, 1.164]<br/>class = 0>, fillcolor="#eeaa7a"] ;
424 -> 426 ;
427 [label=<gini = 0.0<br/>samples = 1<br/>value = [3.549, 0.0]<br/>class = 0>, fillcolor="#e58139"] ;
426 -> 427 ;
428 [label=<gini = 0.0<br/>samples = 1<br/>value = [0.0, 1.164]<br/>class = 1>, fillcolor="#399de5"] ;
426 -> 428 ;
429 [label=<gini = -0.0<br/>samples = 99<br/>value = [0.0, 96.611]<br/>class = 1>, fillcolor="#399de5"] ;
423 -> 429 ;
430 [label=<gini = 0.0<br/>samples = 15<br/>value = [0.0, 11.058]<br/>class = 1>, fillcolor="#399de5"] ;
332 -> 430 ;
431 [label=<IMPACTYPE &le; 1.5<br/>gini = 0.455<br/>samples = 137<br/>value = [63.881, 118.727]<br/>class = 1>, fillcolor="#a4d2f3"] ;
331 -> 431 ;
432 [label=<INJURY &le; 2.5<br/>gini = 0.299<br/>samples = 21<br/>value = [39.038, 8.73]<br/>class = 0>, fillcolor="#eb9d65"] ;
431 -> 432 ;
433 [label=<ACCLOC &le; 2.0<br/>gini = 0.463<br/>samples = 6<br/>value = [7.098, 4.074]<br/>class = 0>, fillcolor="#f4c9ab"] ;
432 -> 433 ;
434 [label=<gini = 0.0<br/>samples = 3<br/>value = [0.0, 3.492]<br/>class = 1>, fillcolor="#399de5"] ;
433 -> 434 ;
435 [label=<WEEKDAY &le; 4.0<br/>gini = 0.14<br/>samples = 3<br/>value = [7.098, 0.582]<br/>class = 0>, fillcolor="#e78b49"] ;
433 -> 435 ;
436 [label=<LONGITUDE &le; -79.495<br/>gini = 0.242<br/>samples = 2<br/>value = [3.549, 0.582]<br/>class = 0>, fillcolor="#e99659"] ;
435 -> 436 ;
437 [label=<gini = 0.0<br/>samples = 1<br/>value = [3.549, 0.0]<br/>class = 0>, fillcolor="#e58139"] ;
436 -> 437 ;
438 [label=<gini = 0.0<br/>samples = 1<br/>value = [0.0, 0.582]<br/>class = 1>, fillcolor="#399de5"] ;
436 -> 438 ;
439 [label=<gini = 0.0<br/>samples = 1<br/>value = [3.549, 0.0]<br/>class = 0>, fillcolor="#e58139"] ;
435 -> 439 ;
440 [label=<DIVISION &le; 5.0<br/>gini = 0.222<br/>samples = 15<br/>value = [31.94, 4.656]<br/>class = 0>, fillcolor="#e99356"] ;
432 -> 440 ;
441 [label=<gini = 0.0<br/>samples = 4<br/>value = [0.0, 2.91]<br/>class = 1>, fillcolor="#399de5"] ;
440 -> 441 ;
442 [label=<ACCLOC &le; 1.0<br/>gini = 0.098<br/>samples = 11<br/>value = [31.94, 1.746]<br/>class = 0>, fillcolor="#e68844"] ;
440 -> 442 ;
443 [label=<gini = 0.0<br/>samples = 1<br/>value = [0.0, 0.582]<br/>class = 1>, fillcolor="#399de5"] ;
442 -> 443 ;
444 [label=<LATITUDE &le; 43.794<br/>gini = 0.068<br/>samples = 10<br/>value = [31.94, 1.164]<br/>class = 0>, fillcolor="#e68640"] ;
442 -> 444 ;
445 [label=<WEEKDAY &le; 0.5<br/>gini = 0.035<br/>samples = 9<br/>value = [31.94, 0.582]<br/>class = 0>, fillcolor="#e5833d"] ;
444 -> 445 ;
446 [label=<gini = 0.0<br/>samples = 1<br/>value = [0.0, 0.582]<br/>class = 1>, fillcolor="#399de5"] ;
445 -> 446 ;
447 [label=<gini = 0.0<br/>samples = 8<br/>value = [31.94, 0.0]<br/>class = 0>, fillcolor="#e58139"] ;
445 -> 447 ;
448 [label=<gini = 0.0<br/>samples = 1<br/>value = [0.0, 0.582]<br/>class = 1>, fillcolor="#399de5"] ;
444 -> 448 ;
449 [label=<INJURY &le; 0.5<br/>gini = 0.301<br/>samples = 116<br/>value = [24.842, 109.997]<br/>class = 1>, fillcolor="#66b3eb"] ;
431 -> 449 ;
450 [label=<gini = 0.0<br/>samples = 2<br/>value = [10.647, 0.0]<br/>class = 0>, fillcolor="#e58139"] ;
449 -> 450 ;
451 [label=<WEEKDAY &le; 4.5<br/>gini = 0.202<br/>samples = 114<br/>value = [14.196, 109.997]<br/>class = 1>, fillcolor="#53aae8"] ;
449 -> 451 ;
452 [label=<ROAD_CLASS &le; 8.5<br/>gini = 0.076<br/>samples = 90<br/>value = [3.549, 85.553]<br/>class = 1>, fillcolor="#41a1e6"] ;
451 -> 452 ;
453 [label=<gini = 0.0<br/>samples = 77<br/>value = [0.0, 72.168]<br/>class = 1>, fillcolor="#399de5"] ;
452 -> 453 ;
454 [label=<WEEKDAY &le; 2.5<br/>gini = 0.331<br/>samples = 13<br/>value = [3.549, 13.386]<br/>class = 1>, fillcolor="#6db7ec"] ;
452 -> 454 ;
455 [label=<gini = 0.0<br/>samples = 10<br/>value = [0.0, 11.64]<br/>class = 1>, fillcolor="#399de5"] ;
454 -> 455 ;
456 [label=<SPEEDING &le; 0.5<br/>gini = 0.442<br/>samples = 3<br/>value = [3.549, 1.746]<br/>class = 0>, fillcolor="#f2bf9a"] ;
454 -> 456 ;
457 [label=<WEEKDAY &le; 3.5<br/>gini = 0.0<br/>samples = 2<br/>value = [0.0, 1.746]<br/>class = 1>, fillcolor="#399de5"] ;
456 -> 457 ;
458 [label=<gini = 0.0<br/>samples = 1<br/>value = [0.0, 1.164]<br/>class = 1>, fillcolor="#399de5"] ;
457 -> 458 ;
459 [label=<gini = 0.0<br/>samples = 1<br/>value = [0.0, 0.582]<br/>class = 1>, fillcolor="#399de5"] ;
457 -> 459 ;
460 [label=<gini = 0.0<br/>samples = 1<br/>value = [3.549, 0.0]<br/>class = 0>, fillcolor="#e58139"] ;
456 -> 460 ;
461 [label=<YEAR &le; 2015.5<br/>gini = 0.423<br/>samples = 24<br/>value = [10.647, 24.444]<br/>class = 1>, fillcolor="#8fc8f0"] ;
451 -> 461 ;
462 [label=<gini = 0.0<br/>samples = 11<br/>value = [0.0, 12.222]<br/>class = 1>, fillcolor="#399de5"] ;
461 -> 462 ;
463 [label=<DRIVCOND &le; 5.5<br/>gini = 0.498<br/>samples = 13<br/>value = [10.647, 12.222]<br/>class = 1>, fillcolor="#e5f2fc"] ;
461 -> 463 ;
464 [label=<DAY &le; 4.0<br/>gini = 0.242<br/>samples = 4<br/>value = [10.647, 1.746]<br/>class = 0>, fillcolor="#e99659"] ;
463 -> 464 ;
465 [label=<gini = 0.0<br/>samples = 1<br/>value = [10.647, 0.0]<br/>class = 0>, fillcolor="#e58139"] ;
464 -> 465 ;
466 [label=<gini = 0.0<br/>samples = 3<br/>value = [0.0, 1.746]<br/>class = 1>, fillcolor="#399de5"] ;
464 -> 466 ;
467 [label=<DIVISION &le; 3.5<br/>gini = 0.0<br/>samples = 9<br/>value = [0.0, 10.476]<br/>class = 1>, fillcolor="#399de5"] ;
463 -> 467 ;
468 [label=<gini = 0.0<br/>samples = 4<br/>value = [0.0, 3.492]<br/>class = 1>, fillcolor="#399de5"] ;
467 -> 468 ;
469 [label=<gini = 0.0<br/>samples = 5<br/>value = [0.0, 6.984]<br/>class = 1>, fillcolor="#399de5"] ;
467 -> 469 ;
470 [label=<YEAR &le; 2013.5<br/>gini = 0.498<br/>samples = 241<br/>value = [212.936, 187.403]<br/>class = 0>, fillcolor="#fcf0e7"] ;
330 -> 470 ;
471 [label=<INJURY &le; 3.5<br/>gini = 0.462<br/>samples = 134<br/>value = [60.332, 106.505]<br/>class = 1>, fillcolor="#a9d5f4"] ;
470 -> 471 ;
472 [label=<gini = 0.0<br/>samples = 8<br/>value = [0.0, 5.82]<br/>class = 1>, fillcolor="#399de5"] ;
471 -> 472 ;
473 [label=<DIVISION &le; 13.5<br/>gini = 0.469<br/>samples = 126<br/>value = [60.332, 100.685]<br/>class = 1>, fillcolor="#b0d8f5"] ;
471 -> 473 ;
474 [label=<DAY &le; 1.5<br/>gini = 0.487<br/>samples = 108<br/>value = [60.332, 83.225]<br/>class = 1>, fillcolor="#c9e4f8"] ;
473 -> 474 ;
475 [label=<gini = 0.0<br/>samples = 4<br/>value = [0.0, 5.238]<br/>class = 1>, fillcolor="#399de5"] ;
474 -> 475 ;
476 [label=<WEEKDAY &le; 4.5<br/>gini = 0.492<br/>samples = 104<br/>value = [60.332, 77.987]<br/>class = 1>, fillcolor="#d2e9f9"] ;
474 -> 476 ;
477 [label=<DAY &le; 2.5<br/>gini = 0.408<br/>samples = 78<br/>value = [24.842, 62.274]<br/>class = 1>, fillcolor="#88c4ef"] ;
476 -> 477 ;
478 [label=<MONTH &le; 8.5<br/>gini = 0.242<br/>samples = 2<br/>value = [3.549, 0.582]<br/>class = 0>, fillcolor="#e99659"] ;
477 -> 478 ;
479 [label=<gini = 0.0<br/>samples = 1<br/>value = [3.549, 0.0]<br/>class = 0>, fillcolor="#e58139"] ;
478 -> 479 ;
480 [label=<gini = 0.0<br/>samples = 1<br/>value = [0.0, 0.582]<br/>class = 1>, fillcolor="#399de5"] ;
478 -> 480 ;
481 [label=<DAY &le; 9.5<br/>gini = 0.382<br/>samples = 76<br/>value = [21.294, 61.692]<br/>class = 1>, fillcolor="#7dbfee"] ;
477 -> 481 ;
482 [label=<gini = 0.0<br/>samples = 20<br/>value = [0.0, 21.534]<br/>class = 1>, fillcolor="#399de5"] ;
481 -> 482 ;
483 [label=<WEEKDAY &le; 0.5<br/>gini = 0.453<br/>samples = 56<br/>value = [21.294, 40.158]<br/>class = 1>, fillcolor="#a2d1f3"] ;
481 -> 483 ;
484 [label=<LONGITUDE &le; -79.398<br/>gini = 0.5<br/>samples = 15<br/>value = [10.647, 10.476]<br/>class = 0>, fillcolor="#fffdfc"] ;
483 -> 484 ;
485 [label=<YEAR &le; 2012.5<br/>gini = 0.411<br/>samples = 10<br/>value = [3.549, 8.73]<br/>class = 1>, fillcolor="#89c5f0"] ;
484 -> 485 ;
486 [label=<gini = 0.0<br/>samples = 9<br/>value = [0.0, 8.73]<br/>class = 1>, fillcolor="#399de5"] ;
485 -> 486 ;
487 [label=<gini = 0.0<br/>samples = 1<br/>value = [3.549, 0.0]<br/>class = 0>, fillcolor="#e58139"] ;
485 -> 487 ;
488 [label=<DAY &le; 20.5<br/>gini = 0.317<br/>samples = 5<br/>value = [7.098, 1.746]<br/>class = 0>, fillcolor="#eba06a"] ;
484 -> 488 ;
489 [label=<TIME &le; 1496.5<br/>gini = 0.242<br/>samples = 4<br/>value = [7.098, 1.164]<br/>class = 0>, fillcolor="#e99659"] ;
488 -> 489 ;
490 [label=<ROAD_CLASS &le; 6.5<br/>gini = 0.14<br/>samples = 3<br/>value = [7.098, 0.582]<br/>class = 0>, fillcolor="#e78b49"] ;
489 -> 490 ;
491 [label=<TIME &le; 1150.5<br/>gini = 0.0<br/>samples = 2<br/>value = [7.098, 0.0]<br/>class = 0>, fillcolor="#e58139"] ;
490 -> 491 ;
492 [label=<gini = 0.0<br/>samples = 1<br/>value = [3.549, 0.0]<br/>class = 0>, fillcolor="#e58139"] ;
491 -> 492 ;
493 [label=<gini = 0.0<br/>samples = 1<br/>value = [3.549, 0.0]<br/>class = 0>, fillcolor="#e58139"] ;
491 -> 493 ;
494 [label=<gini = 0.0<br/>samples = 1<br/>value = [0.0, 0.582]<br/>class = 1>, fillcolor="#399de5"] ;
490 -> 494 ;
495 [label=<gini = 0.0<br/>samples = 1<br/>value = [0.0, 0.582]<br/>class = 1>, fillcolor="#399de5"] ;
489 -> 495 ;
496 [label=<gini = 0.0<br/>samples = 1<br/>value = [0.0, 0.582]<br/>class = 1>, fillcolor="#399de5"] ;
488 -> 496 ;
497 [label=<WEEKDAY &le; 2.5<br/>gini = 0.389<br/>samples = 41<br/>value = [10.647, 29.682]<br/>class = 1>, fillcolor="#80c0ee"] ;
483 -> 497 ;
498 [label=<LATITUDE &le; 43.737<br/>gini = 0.301<br/>samples = 20<br/>value = [3.549, 15.714]<br/>class = 1>, fillcolor="#66b3eb"] ;
497 -> 498 ;
499 [label=<YEAR &le; 2006.5<br/>gini = 0.0<br/>samples = 13<br/>value = [0.0, 10.476]<br/>class = 1>, fillcolor="#399de5"] ;
498 -> 499 ;
500 [label=<gini = 0.0<br/>samples = 1<br/>value = [0.0, 1.746]<br/>class = 1>, fillcolor="#399de5"] ;
499 -> 500 ;
501 [label=<gini = 0.0<br/>samples = 12<br/>value = [0.0, 8.73]<br/>class = 1>, fillcolor="#399de5"] ;
499 -> 501 ;
502 [label=<TIME &le; 1270.0<br/>gini = 0.482<br/>samples = 7<br/>value = [3.549, 5.238]<br/>class = 1>, fillcolor="#bfdff7"] ;
498 -> 502 ;
503 [label=<gini = 0.0<br/>samples = 5<br/>value = [0.0, 4.074]<br/>class = 1>, fillcolor="#399de5"] ;
502 -> 503 ;
504 [label=<TIME &le; 1522.5<br/>gini = 0.372<br/>samples = 2<br/>value = [3.549, 1.164]<br/>class = 0>, fillcolor="#eeaa7a"] ;
502 -> 504 ;
505 [label=<gini = 0.0<br/>samples = 1<br/>value = [3.549, 0.0]<br/>class = 0>, fillcolor="#e58139"] ;
504 -> 505 ;
506 [label=<gini = 0.0<br/>samples = 1<br/>value = [0.0, 1.164]<br/>class = 1>, fillcolor="#399de5"] ;
504 -> 506 ;
507 [label=<DIVISION &le; 6.5<br/>gini = 0.447<br/>samples = 21<br/>value = [7.098, 13.968]<br/>class = 1>, fillcolor="#9ecff2"] ;
497 -> 507 ;
508 [label=<gini = 0.0<br/>samples = 10<br/>value = [0.0, 7.566]<br/>class = 1>, fillcolor="#399de5"] ;
507 -> 508 ;
509 [label=<MONTH &le; 9.5<br/>gini = 0.499<br/>samples = 11<br/>value = [7.098, 6.402]<br/>class = 0>, fillcolor="#fcf3ec"] ;
507 -> 509 ;
510 [label=<gini = 0.0<br/>samples = 7<br/>value = [0.0, 5.238]<br/>class = 1>, fillcolor="#399de5"] ;
509 -> 510 ;
511 [label=<MONTH &le; 11.5<br/>gini = 0.242<br/>samples = 4<br/>value = [7.098, 1.164]<br/>class = 0>, fillcolor="#e99659"] ;
509 -> 511 ;
512 [label=<RDSFCOND &le; 4.0<br/>gini = 0.14<br/>samples = 3<br/>value = [7.098, 0.582]<br/>class = 0>, fillcolor="#e78b49"] ;
511 -> 512 ;
513 [label=<gini = 0.0<br/>samples = 2<br/>value = [7.098, 0.0]<br/>class = 0>, fillcolor="#e58139"] ;
512 -> 513 ;
514 [label=<gini = 0.0<br/>samples = 1<br/>value = [0.0, 0.582]<br/>class = 1>, fillcolor="#399de5"] ;
512 -> 514 ;
515 [label=<gini = 0.0<br/>samples = 1<br/>value = [0.0, 0.582]<br/>class = 1>, fillcolor="#399de5"] ;
511 -> 515 ;
516 [label=<DRIVCOND &le; 6.0<br/>gini = 0.425<br/>samples = 26<br/>value = [35.489, 15.714]<br/>class = 0>, fillcolor="#f1b991"] ;
476 -> 516 ;
517 [label=<gini = 0.0<br/>samples = 4<br/>value = [0.0, 3.492]<br/>class = 1>, fillcolor="#399de5"] ;
516 -> 517 ;
518 [label=<ROAD_CLASS &le; 4.5<br/>gini = 0.381<br/>samples = 22<br/>value = [35.489, 12.222]<br/>class = 0>, fillcolor="#eeac7d"] ;
516 -> 518 ;
519 [label=<gini = 0.0<br/>samples = 5<br/>value = [0.0, 4.074]<br/>class = 1>, fillcolor="#399de5"] ;
518 -> 519 ;
520 [label=<YEAR &le; 2007.5<br/>gini = 0.304<br/>samples = 17<br/>value = [35.489, 8.148]<br/>class = 0>, fillcolor="#eb9e66"] ;
518 -> 520 ;
521 [label=<YEAR &le; 2006.5<br/>gini = 0.116<br/>samples = 5<br/>value = [17.745, 1.164]<br/>class = 0>, fillcolor="#e78946"] ;
520 -> 521 ;
522 [label=<DIVISION &le; 6.0<br/>gini = 0.14<br/>samples = 2<br/>value = [7.098, 0.582]<br/>class = 0>, fillcolor="#e78b49"] ;
521 -> 522 ;
523 [label=<gini = 0.0<br/>samples = 1<br/>value = [0.0, 0.582]<br/>class = 1>, fillcolor="#399de5"] ;
522 -> 523 ;
524 [label=<gini = 0.0<br/>samples = 1<br/>value = [7.098, 0.0]<br/>class = 0>, fillcolor="#e58139"] ;
522 -> 524 ;
525 [label=<ACCLOC &le; 2.5<br/>gini = 0.098<br/>samples = 3<br/>value = [10.647, 0.582]<br/>class = 0>, fillcolor="#e68844"] ;
521 -> 525 ;
526 [label=<gini = 0.0<br/>samples = 1<br/>value = [0.0, 0.582]<br/>class = 1>, fillcolor="#399de5"] ;
525 -> 526 ;
527 [label=<gini = 0.0<br/>samples = 2<br/>value = [10.647, 0.0]<br/>class = 0>, fillcolor="#e58139"] ;
525 -> 527 ;
528 [label=<DRIVCOND &le; 7.5<br/>gini = 0.405<br/>samples = 12<br/>value = [17.745, 6.984]<br/>class = 0>, fillcolor="#efb387"] ;
520 -> 528 ;
529 [label=<YEAR &le; 2010.5<br/>gini = 0.372<br/>samples = 11<br/>value = [17.745, 5.82]<br/>class = 0>, fillcolor="#eeaa7a"] ;
528 -> 529 ;
530 [label=<gini = 0.0<br/>samples = 5<br/>value = [0.0, 4.074]<br/>class = 1>, fillcolor="#399de5"] ;
529 -> 530 ;
531 [label=<ACCLOC &le; 2.5<br/>gini = 0.163<br/>samples = 6<br/>value = [17.745, 1.746]<br/>class = 0>, fillcolor="#e88d4c"] ;
529 -> 531 ;
532 [label=<gini = 0.0<br/>samples = 1<br/>value = [0.0, 0.582]<br/>class = 1>, fillcolor="#399de5"] ;
531 -> 532 ;
533 [label=<ROAD_CLASS &le; 6.5<br/>gini = 0.116<br/>samples = 5<br/>value = [17.745, 1.164]<br/>class = 0>, fillcolor="#e78946"] ;
531 -> 533 ;
534 [label=<MONTH &le; 8.0<br/>gini = 0.14<br/>samples = 4<br/>value = [14.196, 1.164]<br/>class = 0>, fillcolor="#e78b49"] ;
533 -> 534 ;
535 [label=<MONTH &le; 6.5<br/>gini = 0.076<br/>samples = 3<br/>value = [14.196, 0.582]<br/>class = 0>, fillcolor="#e68641"] ;
534 -> 535 ;
536 [label=<YEAR &le; 2012.0<br/>gini = 0.14<br/>samples = 2<br/>value = [7.098, 0.582]<br/>class = 0>, fillcolor="#e78b49"] ;
535 -> 536 ;
537 [label=<gini = 0.0<br/>samples = 1<br/>value = [7.098, 0.0]<br/>class = 0>, fillcolor="#e58139"] ;
536 -> 537 ;
538 [label=<gini = 0.0<br/>samples = 1<br/>value = [0.0, 0.582]<br/>class = 1>, fillcolor="#399de5"] ;
536 -> 538 ;
539 [label=<gini = 0.0<br/>samples = 1<br/>value = [7.098, 0.0]<br/>class = 0>, fillcolor="#e58139"] ;
535 -> 539 ;
540 [label=<gini = 0.0<br/>samples = 1<br/>value = [0.0, 0.582]<br/>class = 1>, fillcolor="#399de5"] ;
534 -> 540 ;
541 [label=<gini = 0.0<br/>samples = 1<br/>value = [3.549, 0.0]<br/>class = 0>, fillcolor="#e58139"] ;
533 -> 541 ;
542 [label=<gini = 0.0<br/>samples = 1<br/>value = [0.0, 1.164]<br/>class = 1>, fillcolor="#399de5"] ;
528 -> 542 ;
543 [label=<gini = -0.0<br/>samples = 18<br/>value = [0.0, 17.46]<br/>class = 1>, fillcolor="#399de5"] ;
473 -> 543 ;
544 [label=<YEAR &le; 2017.5<br/>gini = 0.453<br/>samples = 107<br/>value = [152.604, 80.897]<br/>class = 0>, fillcolor="#f3c4a2"] ;
470 -> 544 ;
545 [label=<LATITUDE &le; 43.655<br/>gini = 0.358<br/>samples = 50<br/>value = [102.919, 31.428]<br/>class = 0>, fillcolor="#eda775"] ;
544 -> 545 ;
546 [label=<gini = 0.0<br/>samples = 8<br/>value = [0.0, 6.984]<br/>class = 1>, fillcolor="#399de5"] ;
545 -> 546 ;
547 [label=<DAY &le; 12.0<br/>gini = 0.31<br/>samples = 42<br/>value = [102.919, 24.444]<br/>class = 0>, fillcolor="#eb9f68"] ;
545 -> 547 ;
548 [label=<ACCLOC &le; 3.0<br/>gini = 0.496<br/>samples = 17<br/>value = [10.647, 12.804]<br/>class = 1>, fillcolor="#deeefb"] ;
547 -> 548 ;
549 [label=<gini = 0.0<br/>samples = 7<br/>value = [0.0, 6.402]<br/>class = 1>, fillcolor="#399de5"] ;
548 -> 549 ;
550 [label=<DAY &le; 7.5<br/>gini = 0.469<br/>samples = 10<br/>value = [10.647, 6.402]<br/>class = 0>, fillcolor="#f5cdb0"] ;
548 -> 550 ;
551 [label=<ROAD_CLASS &le; 6.5<br/>gini = 0.372<br/>samples = 7<br/>value = [10.647, 3.492]<br/>class = 0>, fillcolor="#eeaa7a"] ;
550 -> 551 ;
552 [label=<DAY &le; 4.0<br/>gini = 0.294<br/>samples = 5<br/>value = [10.647, 2.328]<br/>class = 0>, fillcolor="#eb9d64"] ;
551 -> 552 ;
553 [label=<gini = 0.0<br/>samples = 1<br/>value = [7.098, 0.0]<br/>class = 0>, fillcolor="#e58139"] ;
552 -> 553 ;
554 [label=<TIME &le; 1437.5<br/>gini = 0.478<br/>samples = 4<br/>value = [3.549, 2.328]<br/>class = 0>, fillcolor="#f6d4bb"] ;
552 -> 554 ;
555 [label=<gini = 0.0<br/>samples = 1<br/>value = [3.549, 0.0]<br/>class = 0>, fillcolor="#e58139"] ;
554 -> 555 ;
556 [label=<DIVISION &le; 9.5<br/>gini = 0.0<br/>samples = 3<br/>value = [0.0, 2.328]<br/>class = 1>, fillcolor="#399de5"] ;
554 -> 556 ;
557 [label=<gini = 0.0<br/>samples = 1<br/>value = [0.0, 1.164]<br/>class = 1>, fillcolor="#399de5"] ;
556 -> 557 ;
558 [label=<gini = 0.0<br/>samples = 2<br/>value = [0.0, 1.164]<br/>class = 1>, fillcolor="#399de5"] ;
556 -> 558 ;
559 [label=<gini = 0.0<br/>samples = 2<br/>value = [0.0, 1.164]<br/>class = 1>, fillcolor="#399de5"] ;
551 -> 559 ;
560 [label=<RDSFCOND &le; 4.0<br/>gini = 0.0<br/>samples = 3<br/>value = [0.0, 2.91]<br/>class = 1>, fillcolor="#399de5"] ;
550 -> 560 ;
561 [label=<gini = 0.0<br/>samples = 2<br/>value = [0.0, 2.328]<br/>class = 1>, fillcolor="#399de5"] ;
560 -> 561 ;
562 [label=<gini = 0.0<br/>samples = 1<br/>value = [0.0, 0.582]<br/>class = 1>, fillcolor="#399de5"] ;
560 -> 562 ;
563 [label=<ACCLOC &le; 1.5<br/>gini = 0.199<br/>samples = 25<br/>value = [92.272, 11.64]<br/>class = 0>, fillcolor="#e89152"] ;
547 -> 563 ;
564 [label=<DRIVCOND &le; 6.0<br/>gini = 0.337<br/>samples = 9<br/>value = [21.294, 5.82]<br/>class = 0>, fillcolor="#eca36f"] ;
563 -> 564 ;
565 [label=<gini = 0.0<br/>samples = 1<br/>value = [0.0, 1.164]<br/>class = 1>, fillcolor="#399de5"] ;
564 -> 565 ;
566 [label=<PASSENGER &le; 0.5<br/>gini = 0.294<br/>samples = 8<br/>value = [21.294, 4.656]<br/>class = 0>, fillcolor="#eb9d64"] ;
564 -> 566 ;
567 [label=<LATITUDE &le; 43.71<br/>gini = 0.27<br/>samples = 7<br/>value = [21.294, 4.074]<br/>class = 0>, fillcolor="#ea995f"] ;
566 -> 567 ;
568 [label=<gini = 0.0<br/>samples = 2<br/>value = [0.0, 2.328]<br/>class = 1>, fillcolor="#399de5"] ;
567 -> 568 ;
569 [label=<MONTH &le; 8.0<br/>gini = 0.14<br/>samples = 5<br/>value = [21.294, 1.746]<br/>class = 0>, fillcolor="#e78b49"] ;
567 -> 569 ;
570 [label=<TIME &le; 790.0<br/>gini = 0.242<br/>samples = 4<br/>value = [10.647, 1.746]<br/>class = 0>, fillcolor="#e99659"] ;
569 -> 570 ;
571 [label=<gini = 0.0<br/>samples = 1<br/>value = [0.0, 1.164]<br/>class = 1>, fillcolor="#399de5"] ;
570 -> 571 ;
572 [label=<TRSN_CITY_VEH &le; 0.5<br/>gini = 0.098<br/>samples = 3<br/>value = [10.647, 0.582]<br/>class = 0>, fillcolor="#e68844"] ;
570 -> 572 ;
573 [label=<LONGITUDE &le; -79.327<br/>gini = 0.242<br/>samples = 2<br/>value = [3.549, 0.582]<br/>class = 0>, fillcolor="#e99659"] ;
572 -> 573 ;
574 [label=<gini = 0.0<br/>samples = 1<br/>value = [3.549, 0.0]<br/>class = 0>, fillcolor="#e58139"] ;
573 -> 574 ;
575 [label=<gini = 0.0<br/>samples = 1<br/>value = [0.0, 0.582]<br/>class = 1>, fillcolor="#399de5"] ;
573 -> 575 ;
576 [label=<gini = 0.0<br/>samples = 1<br/>value = [7.098, 0.0]<br/>class = 0>, fillcolor="#e58139"] ;
572 -> 576 ;
577 [label=<gini = 0.0<br/>samples = 1<br/>value = [10.647, 0.0]<br/>class = 0>, fillcolor="#e58139"] ;
569 -> 577 ;
578 [label=<gini = 0.0<br/>samples = 1<br/>value = [0.0, 0.582]<br/>class = 1>, fillcolor="#399de5"] ;
566 -> 578 ;
579 [label=<LONGITUDE &le; -79.274<br/>gini = 0.14<br/>samples = 16<br/>value = [70.979, 5.82]<br/>class = 0>, fillcolor="#e78b49"] ;
563 -> 579 ;
580 [label=<DIVISION &le; 0.5<br/>gini = 0.113<br/>samples = 13<br/>value = [63.881, 4.074]<br/>class = 0>, fillcolor="#e78946"] ;
579 -> 580 ;
581 [label=<gini = 0.0<br/>samples = 1<br/>value = [0.0, 1.746]<br/>class = 1>, fillcolor="#399de5"] ;
580 -> 581 ;
582 [label=<LONGITUDE &le; -79.377<br/>gini = 0.068<br/>samples = 12<br/>value = [63.881, 2.328]<br/>class = 0>, fillcolor="#e68640"] ;
580 -> 582 ;
583 [label=<MONTH &le; 8.0<br/>gini = 0.106<br/>samples = 9<br/>value = [39.038, 2.328]<br/>class = 0>, fillcolor="#e78945"] ;
582 -> 583 ;
584 [label=<PASSENGER &le; 0.5<br/>gini = 0.242<br/>samples = 5<br/>value = [10.647, 1.746]<br/>class = 0>, fillcolor="#e99659"] ;
583 -> 584 ;
585 [label=<gini = -0.0<br/>samples = 3<br/>value = [0.0, 1.746]<br/>class = 1>, fillcolor="#399de5"] ;
584 -> 585 ;
586 [label=<gini = 0.0<br/>samples = 2<br/>value = [10.647, 0.0]<br/>class = 0>, fillcolor="#e58139"] ;
584 -> 586 ;
587 [label=<LIGHT &le; 5.5<br/>gini = 0.039<br/>samples = 4<br/>value = [28.391, 0.582]<br/>class = 0>, fillcolor="#e6843d"] ;
583 -> 587 ;
588 [label=<gini = 0.0<br/>samples = 3<br/>value = [28.391, 0.0]<br/>class = 0>, fillcolor="#e58139"] ;
587 -> 588 ;
589 [label=<gini = 0.0<br/>samples = 1<br/>value = [0.0, 0.582]<br/>class = 1>, fillcolor="#399de5"] ;
587 -> 589 ;
590 [label=<gini = 0.0<br/>samples = 3<br/>value = [24.842, 0.0]<br/>class = 0>, fillcolor="#e58139"] ;
582 -> 590 ;
591 [label=<MONTH &le; 6.0<br/>gini = 0.317<br/>samples = 3<br/>value = [7.098, 1.746]<br/>class = 0>, fillcolor="#eba06a"] ;
579 -> 591 ;
592 [label=<gini = 0.0<br/>samples = 1<br/>value = [7.098, 0.0]<br/>class = 0>, fillcolor="#e58139"] ;
591 -> 592 ;
593 [label=<gini = -0.0<br/>samples = 2<br/>value = [0.0, 1.746]<br/>class = 1>, fillcolor="#399de5"] ;
591 -> 593 ;
594 [label=<INJURY &le; 3.5<br/>gini = 0.5<br/>samples = 57<br/>value = [49.685, 49.47]<br/>class = 0>, fillcolor="#fffefe"] ;
544 -> 594 ;
595 [label=<gini = 0.0<br/>samples = 2<br/>value = [0.0, 3.492]<br/>class = 1>, fillcolor="#399de5"] ;
594 -> 595 ;
596 [label=<VISIBILITY &le; 2.5<br/>gini = 0.499<br/>samples = 55<br/>value = [49.685, 45.978]<br/>class = 0>, fillcolor="#fdf6f0"] ;
594 -> 596 ;
597 [label=<DAY &le; 23.5<br/>gini = 0.498<br/>samples = 52<br/>value = [49.685, 43.65]<br/>class = 0>, fillcolor="#fcf0e7"] ;
596 -> 597 ;
598 [label=<PASSENGER &le; 0.5<br/>gini = 0.49<br/>samples = 43<br/>value = [28.391, 37.83]<br/>class = 1>, fillcolor="#cee7f9"] ;
597 -> 598 ;
599 [label=<WEEKDAY &le; 1.5<br/>gini = 0.5<br/>samples = 35<br/>value = [28.391, 27.354]<br/>class = 0>, fillcolor="#fefaf8"] ;
598 -> 599 ;
600 [label=<gini = 0.0<br/>samples = 11<br/>value = [0.0, 9.894]<br/>class = 1>, fillcolor="#399de5"] ;
599 -> 600 ;
601 [label=<DAY &le; 12.0<br/>gini = 0.472<br/>samples = 24<br/>value = [28.391, 17.46]<br/>class = 0>, fillcolor="#f5ceb3"] ;
599 -> 601 ;
602 [label=<DIVISION &le; 3.5<br/>gini = 0.494<br/>samples = 15<br/>value = [10.647, 13.386]<br/>class = 1>, fillcolor="#d6ebfa"] ;
601 -> 602 ;
603 [label=<gini = 0.0<br/>samples = 7<br/>value = [0.0, 8.148]<br/>class = 1>, fillcolor="#399de5"] ;
602 -> 603 ;
604 [label=<DIVISION &le; 7.5<br/>gini = 0.442<br/>samples = 8<br/>value = [10.647, 5.238]<br/>class = 0>, fillcolor="#f2bf9a"] ;
602 -> 604 ;
605 [label=<LATITUDE &le; 43.685<br/>gini = 0.098<br/>samples = 3<br/>value = [10.647, 0.582]<br/>class = 0>, fillcolor="#e68844"] ;
604 -> 605 ;
606 [label=<gini = 0.0<br/>samples = 1<br/>value = [7.098, 0.0]<br/>class = 0>, fillcolor="#e58139"] ;
605 -> 606 ;
607 [label=<ROAD_CLASS &le; 6.5<br/>gini = 0.242<br/>samples = 2<br/>value = [3.549, 0.582]<br/>class = 0>, fillcolor="#e99659"] ;
605 -> 607 ;
608 [label=<gini = 0.0<br/>samples = 1<br/>value = [0.0, 0.582]<br/>class = 1>, fillcolor="#399de5"] ;
607 -> 608 ;
609 [label=<gini = 0.0<br/>samples = 1<br/>value = [3.549, 0.0]<br/>class = 0>, fillcolor="#e58139"] ;
607 -> 609 ;
610 [label=<gini = 0.0<br/>samples = 5<br/>value = [0.0, 4.656]<br/>class = 1>, fillcolor="#399de5"] ;
604 -> 610 ;
611 [label=<LATITUDE &le; 43.734<br/>gini = 0.304<br/>samples = 9<br/>value = [17.745, 4.074]<br/>class = 0>, fillcolor="#eb9e66"] ;
601 -> 611 ;
612 [label=<WEEKDAY &le; 4.5<br/>gini = 0.205<br/>samples = 8<br/>value = [17.745, 2.328]<br/>class = 0>, fillcolor="#e89253"] ;
611 -> 612 ;
613 [label=<TIME &le; 1646.5<br/>gini = 0.116<br/>samples = 6<br/>value = [17.745, 1.164]<br/>class = 0>, fillcolor="#e78946"] ;
612 -> 613 ;
614 [label=<DAY &le; 17.5<br/>gini = 0.061<br/>samples = 5<br/>value = [17.745, 0.582]<br/>class = 0>, fillcolor="#e6853f"] ;
613 -> 614 ;
615 [label=<gini = 0.0<br/>samples = 3<br/>value = [14.196, 0.0]<br/>class = 0>, fillcolor="#e58139"] ;
614 -> 615 ;
616 [label=<ACCLOC &le; 3.0<br/>gini = 0.242<br/>samples = 2<br/>value = [3.549, 0.582]<br/>class = 0>, fillcolor="#e99659"] ;
614 -> 616 ;
617 [label=<gini = 0.0<br/>samples = 1<br/>value = [0.0, 0.582]<br/>class = 1>, fillcolor="#399de5"] ;
616 -> 617 ;
618 [label=<gini = 0.0<br/>samples = 1<br/>value = [3.549, 0.0]<br/>class = 0>, fillcolor="#e58139"] ;
616 -> 618 ;
619 [label=<gini = -0.0<br/>samples = 1<br/>value = [0.0, 0.582]<br/>class = 1>, fillcolor="#399de5"] ;
613 -> 619 ;
620 [label=<gini = 0.0<br/>samples = 2<br/>value = [0.0, 1.164]<br/>class = 1>, fillcolor="#399de5"] ;
612 -> 620 ;
621 [label=<gini = 0.0<br/>samples = 1<br/>value = [0.0, 1.746]<br/>class = 1>, fillcolor="#399de5"] ;
611 -> 621 ;
622 [label=<WEEKDAY &le; 0.5<br/>gini = 0.0<br/>samples = 8<br/>value = [0.0, 10.476]<br/>class = 1>, fillcolor="#399de5"] ;
598 -> 622 ;
623 [label=<gini = 0.0<br/>samples = 3<br/>value = [0.0, 5.238]<br/>class = 1>, fillcolor="#399de5"] ;
622 -> 623 ;
624 [label=<gini = 0.0<br/>samples = 5<br/>value = [0.0, 5.238]<br/>class = 1>, fillcolor="#399de5"] ;
622 -> 624 ;
625 [label=<MONTH &le; 9.5<br/>gini = 0.337<br/>samples = 9<br/>value = [21.294, 5.82]<br/>class = 0>, fillcolor="#eca36f"] ;
597 -> 625 ;
626 [label=<LATITUDE &le; 43.808<br/>gini = 0.242<br/>samples = 7<br/>value = [21.294, 3.492]<br/>class = 0>, fillcolor="#e99659"] ;
625 -> 626 ;
627 [label=<LATITUDE &le; 43.786<br/>gini = 0.372<br/>samples = 6<br/>value = [10.647, 3.492]<br/>class = 0>, fillcolor="#eeaa7a"] ;
626 -> 627 ;
628 [label=<ACCLOC &le; 3.0<br/>gini = 0.178<br/>samples = 4<br/>value = [10.647, 1.164]<br/>class = 0>, fillcolor="#e88f4f"] ;
627 -> 628 ;
629 [label=<gini = 0.0<br/>samples = 2<br/>value = [0.0, 1.164]<br/>class = 1>, fillcolor="#399de5"] ;
628 -> 629 ;
630 [label=<gini = 0.0<br/>samples = 2<br/>value = [10.647, 0.0]<br/>class = 0>, fillcolor="#e58139"] ;
628 -> 630 ;
631 [label=<gini = 0.0<br/>samples = 2<br/>value = [0.0, 2.328]<br/>class = 1>, fillcolor="#399de5"] ;
627 -> 631 ;
632 [label=<gini = 0.0<br/>samples = 1<br/>value = [10.647, 0.0]<br/>class = 0>, fillcolor="#e58139"] ;
626 -> 632 ;
633 [label=<gini = 0.0<br/>samples = 2<br/>value = [0.0, 2.328]<br/>class = 1>, fillcolor="#399de5"] ;
625 -> 633 ;
634 [label=<gini = -0.0<br/>samples = 3<br/>value = [0.0, 2.328]<br/>class = 1>, fillcolor="#399de5"] ;
596 -> 634 ;
635 [label=<LATITUDE &le; 43.701<br/>gini = 0.496<br/>samples = 1403<br/>value = [1284.711, 1073.201]<br/>class = 0>, fillcolor="#fbeade"] ;
131 -> 635 ;
636 [label=<ALCOHOL &le; 0.5<br/>gini = 0.499<br/>samples = 730<br/>value = [525.241, 578.504]<br/>class = 1>, fillcolor="#edf6fd"] ;
635 -> 636 ;
637 [label=<CYCCOND &le; 8.5<br/>gini = 0.499<br/>samples = 694<br/>value = [514.594, 549.404]<br/>class = 1>, fillcolor="#f2f9fd"] ;
636 -> 637 ;
638 [label=<INJURY &le; 0.5<br/>gini = 0.18<br/>samples = 74<br/>value = [7.098, 64.02]<br/>class = 1>, fillcolor="#4fa8e8"] ;
637 -> 638 ;
639 [label=<gini = 0.0<br/>samples = 2<br/>value = [7.098, 0.0]<br/>class = 0>, fillcolor="#e58139"] ;
638 -> 639 ;
640 [label=<gini = -0.0<br/>samples = 72<br/>value = [0.0, 64.02]<br/>class = 1>, fillcolor="#399de5"] ;
638 -> 640 ;
641 [label=<TIME &le; 1756.0<br/>gini = 0.5<br/>samples = 620<br/>value = [507.497, 485.385]<br/>class = 0>, fillcolor="#fefaf6"] ;
637 -> 641 ;
642 [label=<YEAR &le; 2012.5<br/>gini = 0.499<br/>samples = 586<br/>value = [507.497, 455.703]<br/>class = 0>, fillcolor="#fcf2eb"] ;
641 -> 642 ;
643 [label=<TIME &le; 604.0<br/>gini = 0.482<br/>samples = 290<br/>value = [166.8, 246.184]<br/>class = 1>, fillcolor="#bfdff7"] ;
642 -> 643 ;
644 [label=<DIVISION &le; 8.5<br/>gini = 0.324<br/>samples = 92<br/>value = [21.294, 83.225]<br/>class = 1>, fillcolor="#6cb6ec"] ;
643 -> 644 ;
645 [label=<INJURY &le; 0.5<br/>gini = 0.449<br/>samples = 51<br/>value = [21.294, 41.322]<br/>class = 1>, fillcolor="#9fd0f2"] ;
644 -> 645 ;
646 [label=<gini = 0.0<br/>samples = 1<br/>value = [7.098, 0.0]<br/>class = 0>, fillcolor="#e58139"] ;
645 -> 646 ;
647 [label=<IMPACTYPE &le; 4.5<br/>gini = 0.381<br/>samples = 50<br/>value = [14.196, 41.322]<br/>class = 1>, fillcolor="#7dbfee"] ;
645 -> 647 ;
648 [label=<PEDCOND &le; 2.0<br/>gini = 0.0<br/>samples = 26<br/>value = [0.0, 23.862]<br/>class = 1>, fillcolor="#399de5"] ;
647 -> 648 ;
649 [label=<gini = 0.0<br/>samples = 1<br/>value = [0.0, 0.582]<br/>class = 1>, fillcolor="#399de5"] ;
648 -> 649 ;
650 [label=<gini = 0.0<br/>samples = 25<br/>value = [0.0, 23.28]<br/>class = 1>, fillcolor="#399de5"] ;
648 -> 650 ;
651 [label=<IMPACTYPE &le; 5.5<br/>gini = 0.495<br/>samples = 24<br/>value = [14.196, 17.46]<br/>class = 1>, fillcolor="#daedfa"] ;
647 -> 651 ;
652 [label=<ROAD_CLASS &le; 7.0<br/>gini = 0.242<br/>samples = 4<br/>value = [7.098, 1.164]<br/>class = 0>, fillcolor="#e99659"] ;
651 -> 652 ;
653 [label=<gini = 0.0<br/>samples = 2<br/>value = [7.098, 0.0]<br/>class = 0>, fillcolor="#e58139"] ;
652 -> 653 ;
654 [label=<INJURY &le; 2.5<br/>gini = 0.0<br/>samples = 2<br/>value = [0.0, 1.164]<br/>class = 1>, fillcolor="#399de5"] ;
652 -> 654 ;
655 [label=<gini = 0.0<br/>samples = 1<br/>value = [0.0, 0.582]<br/>class = 1>, fillcolor="#399de5"] ;
654 -> 655 ;
656 [label=<gini = 0.0<br/>samples = 1<br/>value = [0.0, 0.582]<br/>class = 1>, fillcolor="#399de5"] ;
654 -> 656 ;
657 [label=<VISIBILITY &le; 2.5<br/>gini = 0.423<br/>samples = 20<br/>value = [7.098, 16.296]<br/>class = 1>, fillcolor="#8fc8f0"] ;
651 -> 657 ;
658 [label=<MONTH &le; 6.0<br/>gini = 0.486<br/>samples = 12<br/>value = [7.098, 9.894]<br/>class = 1>, fillcolor="#c7e3f8"] ;
657 -> 658 ;
659 [label=<gini = 0.0<br/>samples = 5<br/>value = [0.0, 6.402]<br/>class = 1>, fillcolor="#399de5"] ;
658 -> 659 ;
660 [label=<MONTH &le; 9.5<br/>gini = 0.442<br/>samples = 7<br/>value = [7.098, 3.492]<br/>class = 0>, fillcolor="#f2bf9a"] ;
658 -> 660 ;
661 [label=<DISABILITY &le; 0.5<br/>gini = 0.317<br/>samples = 5<br/>value = [7.098, 1.746]<br/>class = 0>, fillcolor="#eba06a"] ;
660 -> 661 ;
662 [label=<TIME &le; 266.0<br/>gini = 0.242<br/>samples = 4<br/>value = [7.098, 1.164]<br/>class = 0>, fillcolor="#e99659"] ;
661 -> 662 ;
663 [label=<gini = 0.0<br/>samples = 2<br/>value = [7.098, 0.0]<br/>class = 0>, fillcolor="#e58139"] ;
662 -> 663 ;
664 [label=<WEEKDAY &le; 4.5<br/>gini = 0.0<br/>samples = 2<br/>value = [0.0, 1.164]<br/>class = 1>, fillcolor="#399de5"] ;
662 -> 664 ;
665 [label=<gini = 0.0<br/>samples = 1<br/>value = [0.0, 0.582]<br/>class = 1>, fillcolor="#399de5"] ;
664 -> 665 ;
666 [label=<gini = 0.0<br/>samples = 1<br/>value = [0.0, 0.582]<br/>class = 1>, fillcolor="#399de5"] ;
664 -> 666 ;
667 [label=<gini = 0.0<br/>samples = 1<br/>value = [0.0, 0.582]<br/>class = 1>, fillcolor="#399de5"] ;
661 -> 667 ;
668 [label=<gini = 0.0<br/>samples = 2<br/>value = [0.0, 1.746]<br/>class = 1>, fillcolor="#399de5"] ;
660 -> 668 ;
669 [label=<LIGHT &le; 0.5<br/>gini = 0.0<br/>samples = 8<br/>value = [0.0, 6.402]<br/>class = 1>, fillcolor="#399de5"] ;
657 -> 669 ;
670 [label=<gini = 0.0<br/>samples = 6<br/>value = [0.0, 5.238]<br/>class = 1>, fillcolor="#399de5"] ;
669 -> 670 ;
671 [label=<gini = 0.0<br/>samples = 2<br/>value = [0.0, 1.164]<br/>class = 1>, fillcolor="#399de5"] ;
669 -> 671 ;
672 [label=<gini = -0.0<br/>samples = 41<br/>value = [0.0, 41.904]<br/>class = 1>, fillcolor="#399de5"] ;
644 -> 672 ;
673 [label=<VISIBILITY &le; 0.5<br/>gini = 0.498<br/>samples = 198<br/>value = [145.506, 162.959]<br/>class = 1>, fillcolor="#eaf5fc"] ;
643 -> 673 ;
674 [label=<PASSENGER &le; 0.5<br/>gini = 0.499<br/>samples = 167<br/>value = [145.506, 134.441]<br/>class = 0>, fillcolor="#fdf5f0"] ;
673 -> 674 ;
675 [label=<IMPACTYPE &le; 6.5<br/>gini = 0.454<br/>samples = 114<br/>value = [53.234, 99.521]<br/>class = 1>, fillcolor="#a3d1f3"] ;
674 -> 675 ;
676 [label=<PEDCOND &le; 5.5<br/>gini = 0.477<br/>samples = 98<br/>value = [53.234, 82.061]<br/>class = 1>, fillcolor="#b9ddf6"] ;
675 -> 676 ;
677 [label=<gini = 0.0<br/>samples = 18<br/>value = [0.0, 18.624]<br/>class = 1>, fillcolor="#399de5"] ;
676 -> 677 ;
678 [label=<DIVISION &le; 0.5<br/>gini = 0.496<br/>samples = 80<br/>value = [53.234, 63.438]<br/>class = 1>, fillcolor="#dfeffb"] ;
676 -> 678 ;
679 [label=<CYCLIST &le; 0.5<br/>gini = 0.387<br/>samples = 12<br/>value = [21.294, 7.566]<br/>class = 0>, fillcolor="#eeae7f"] ;
678 -> 679 ;
680 [label=<LATITUDE &le; 43.65<br/>gini = 0.372<br/>samples = 11<br/>value = [21.294, 6.984]<br/>class = 0>, fillcolor="#eeaa7a"] ;
679 -> 680 ;
681 [label=<gini = 0.0<br/>samples = 4<br/>value = [0.0, 4.656]<br/>class = 1>, fillcolor="#399de5"] ;
680 -> 681 ;
682 [label=<LATITUDE &le; 43.654<br/>gini = 0.178<br/>samples = 7<br/>value = [21.294, 2.328]<br/>class = 0>, fillcolor="#e88f4f"] ;
680 -> 682 ;
683 [label=<TIME &le; 1218.0<br/>gini = 0.098<br/>samples = 5<br/>value = [21.294, 1.164]<br/>class = 0>, fillcolor="#e68844"] ;
682 -> 683 ;
684 [label=<gini = -0.0<br/>samples = 3<br/>value = [21.294, 0.0]<br/>class = 0>, fillcolor="#e58139"] ;
683 -> 684 ;
685 [label=<LONGITUDE &le; -79.476<br/>gini = 0.0<br/>samples = 2<br/>value = [0.0, 1.164]<br/>class = 1>, fillcolor="#399de5"] ;
683 -> 685 ;
686 [label=<gini = 0.0<br/>samples = 1<br/>value = [0.0, 0.582]<br/>class = 1>, fillcolor="#399de5"] ;
685 -> 686 ;
687 [label=<gini = 0.0<br/>samples = 1<br/>value = [0.0, 0.582]<br/>class = 1>, fillcolor="#399de5"] ;
685 -> 687 ;
688 [label=<LONGITUDE &le; -79.445<br/>gini = 0.0<br/>samples = 2<br/>value = [0.0, 1.164]<br/>class = 1>, fillcolor="#399de5"] ;
682 -> 688 ;
689 [label=<gini = 0.0<br/>samples = 1<br/>value = [0.0, 0.582]<br/>class = 1>, fillcolor="#399de5"] ;
688 -> 689 ;
690 [label=<gini = 0.0<br/>samples = 1<br/>value = [0.0, 0.582]<br/>class = 1>, fillcolor="#399de5"] ;
688 -> 690 ;
691 [label=<gini = 0.0<br/>samples = 1<br/>value = [0.0, 0.582]<br/>class = 1>, fillcolor="#399de5"] ;
679 -> 691 ;
692 [label=<DIVISION &le; 3.5<br/>gini = 0.463<br/>samples = 68<br/>value = [31.94, 55.872]<br/>class = 1>, fillcolor="#aad5f4"] ;
678 -> 692 ;
693 [label=<gini = 0.0<br/>samples = 22<br/>value = [0.0, 20.952]<br/>class = 1>, fillcolor="#399de5"] ;
692 -> 693 ;
694 [label=<DIVISION &le; 14.5<br/>gini = 0.499<br/>samples = 46<br/>value = [31.94, 34.92]<br/>class = 1>, fillcolor="#eef7fd"] ;
692 -> 694 ;
695 [label=<TIME &le; 1512.0<br/>gini = 0.486<br/>samples = 31<br/>value = [31.94, 22.698]<br/>class = 0>, fillcolor="#f7dbc6"] ;
694 -> 695 ;
696 [label=<INJURY &le; 0.5<br/>gini = 0.436<br/>samples = 22<br/>value = [31.94, 15.132]<br/>class = 0>, fillcolor="#f1bd97"] ;
695 -> 696 ;
697 [label=<gini = 0.0<br/>samples = 5<br/>value = [24.842, 0.0]<br/>class = 0>, fillcolor="#e58139"] ;
696 -> 697 ;
698 [label=<YEAR &le; 2008.5<br/>gini = 0.435<br/>samples = 17<br/>value = [7.098, 15.132]<br/>class = 1>, fillcolor="#96cbf1"] ;
696 -> 698 ;
699 [label=<TRSN_CITY_VEH &le; 0.5<br/>gini = 0.478<br/>samples = 6<br/>value = [7.098, 4.656]<br/>class = 0>, fillcolor="#f6d4bb"] ;
698 -> 699 ;
700 [label=<YEAR &le; 2006.5<br/>gini = 0.372<br/>samples = 5<br/>value = [7.098, 2.328]<br/>class = 0>, fillcolor="#eeaa7a"] ;
699 -> 700 ;
701 [label=<gini = 0.0<br/>samples = 1<br/>value = [0.0, 0.582]<br/>class = 1>, fillcolor="#399de5"] ;
700 -> 701 ;
702 [label=<PEDCOND &le; 8.0<br/>gini = 0.317<br/>samples = 4<br/>value = [7.098, 1.746]<br/>class = 0>, fillcolor="#eba06a"] ;
700 -> 702 ;
703 [label=<gini = 0.0<br/>samples = 1<br/>value = [0.0, 1.164]<br/>class = 1>, fillcolor="#399de5"] ;
702 -> 703 ;
704 [label=<CYCLIST &le; 0.5<br/>gini = 0.14<br/>samples = 3<br/>value = [7.098, 0.582]<br/>class = 0>, fillcolor="#e78b49"] ;
702 -> 704 ;
705 [label=<RDSFCOND &le; 4.0<br/>gini = 0.0<br/>samples = 2<br/>value = [7.098, 0.0]<br/>class = 0>, fillcolor="#e58139"] ;
704 -> 705 ;
706 [label=<gini = 0.0<br/>samples = 1<br/>value = [3.549, 0.0]<br/>class = 0>, fillcolor="#e58139"] ;
705 -> 706 ;
707 [label=<gini = 0.0<br/>samples = 1<br/>value = [3.549, 0.0]<br/>class = 0>, fillcolor="#e58139"] ;
705 -> 707 ;
708 [label=<gini = 0.0<br/>samples = 1<br/>value = [0.0, 0.582]<br/>class = 1>, fillcolor="#399de5"] ;
704 -> 708 ;
709 [label=<gini = 0.0<br/>samples = 1<br/>value = [0.0, 2.328]<br/>class = 1>, fillcolor="#399de5"] ;
699 -> 709 ;
710 [label=<LATITUDE &le; 43.609<br/>gini = 0.0<br/>samples = 11<br/>value = [0.0, 10.476]<br/>class = 1>, fillcolor="#399de5"] ;
698 -> 710 ;
711 [label=<gini = 0.0<br/>samples = 1<br/>value = [0.0, 0.582]<br/>class = 1>, fillcolor="#399de5"] ;
710 -> 711 ;
712 [label=<gini = 0.0<br/>samples = 10<br/>value = [0.0, 9.894]<br/>class = 1>, fillcolor="#399de5"] ;
710 -> 712 ;
713 [label=<MOTORCYCLE &le; 0.5<br/>gini = 0.0<br/>samples = 9<br/>value = [0.0, 7.566]<br/>class = 1>, fillcolor="#399de5"] ;
695 -> 713 ;
714 [label=<gini = 0.0<br/>samples = 8<br/>value = [0.0, 6.402]<br/>class = 1>, fillcolor="#399de5"] ;
713 -> 714 ;
715 [label=<gini = 0.0<br/>samples = 1<br/>value = [0.0, 1.164]<br/>class = 1>, fillcolor="#399de5"] ;
713 -> 715 ;
716 [label=<gini = 0.0<br/>samples = 15<br/>value = [0.0, 12.222]<br/>class = 1>, fillcolor="#399de5"] ;
694 -> 716 ;
717 [label=<gini = -0.0<br/>samples = 16<br/>value = [0.0, 17.46]<br/>class = 1>, fillcolor="#399de5"] ;
675 -> 717 ;
718 [label=<WEEKDAY &le; 3.5<br/>gini = 0.398<br/>samples = 53<br/>value = [92.272, 34.92]<br/>class = 0>, fillcolor="#efb184"] ;
674 -> 718 ;
719 [label=<ACCLOC &le; 2.0<br/>gini = 0.486<br/>samples = 37<br/>value = [39.038, 27.936]<br/>class = 0>, fillcolor="#f8dbc7"] ;
718 -> 719 ;
720 [label=<WEEKDAY &le; 1.0<br/>gini = 0.282<br/>samples = 5<br/>value = [14.196, 2.91]<br/>class = 0>, fillcolor="#ea9b62"] ;
719 -> 720 ;
721 [label=<DAY &le; 15.0<br/>gini = 0.0<br/>samples = 3<br/>value = [0.0, 2.91]<br/>class = 1>, fillcolor="#399de5"] ;
720 -> 721 ;
722 [label=<gini = 0.0<br/>samples = 2<br/>value = [0.0, 1.746]<br/>class = 1>, fillcolor="#399de5"] ;
721 -> 722 ;
723 [label=<gini = 0.0<br/>samples = 1<br/>value = [0.0, 1.164]<br/>class = 1>, fillcolor="#399de5"] ;
721 -> 723 ;
724 [label=<INJURY &le; 2.5<br/>gini = 0.0<br/>samples = 2<br/>value = [14.196, 0.0]<br/>class = 0>, fillcolor="#e58139"] ;
720 -> 724 ;
725 [label=<gini = 0.0<br/>samples = 1<br/>value = [7.098, 0.0]<br/>class = 0>, fillcolor="#e58139"] ;
724 -> 725 ;
726 [label=<gini = 0.0<br/>samples = 1<br/>value = [7.098, 0.0]<br/>class = 0>, fillcolor="#e58139"] ;
724 -> 726 ;
727 [label=<IMPACTYPE &le; 5.5<br/>gini = 0.5<br/>samples = 32<br/>value = [24.842, 25.026]<br/>class = 1>, fillcolor="#fefeff"] ;
719 -> 727 ;
728 [label=<gini = 0.0<br/>samples = 12<br/>value = [0.0, 11.058]<br/>class = 1>, fillcolor="#399de5"] ;
727 -> 728 ;
729 [label=<MONTH &le; 10.5<br/>gini = 0.461<br/>samples = 20<br/>value = [24.842, 13.968]<br/>class = 0>, fillcolor="#f4c8a8"] ;
727 -> 729 ;
730 [label=<MONTH &le; 4.5<br/>gini = 0.494<br/>samples = 16<br/>value = [10.647, 13.386]<br/>class = 1>, fillcolor="#d6ebfa"] ;
729 -> 730 ;
731 [label=<LIGHT &le; 2.0<br/>gini = 0.423<br/>samples = 6<br/>value = [10.647, 4.656]<br/>class = 0>, fillcolor="#f0b890"] ;
730 -> 731 ;
732 [label=<gini = 0.0<br/>samples = 1<br/>value = [0.0, 0.582]<br/>class = 1>, fillcolor="#399de5"] ;
731 -> 732 ;
733 [label=<DAY &le; 16.0<br/>gini = 0.4<br/>samples = 5<br/>value = [10.647, 4.074]<br/>class = 0>, fillcolor="#efb185"] ;
731 -> 733 ;
734 [label=<gini = 0.0<br/>samples = 4<br/>value = [0.0, 4.074]<br/>class = 1>, fillcolor="#399de5"] ;
733 -> 734 ;
735 [label=<gini = 0.0<br/>samples = 1<br/>value = [10.647, 0.0]<br/>class = 0>, fillcolor="#e58139"] ;
733 -> 735 ;
736 [label=<gini = 0.0<br/>samples = 10<br/>value = [0.0, 8.73]<br/>class = 1>, fillcolor="#399de5"] ;
730 -> 736 ;
737 [label=<IMPACTYPE &le; 7.5<br/>gini = 0.076<br/>samples = 4<br/>value = [14.196, 0.582]<br/>class = 0>, fillcolor="#e68641"] ;
729 -> 737 ;
738 [label=<gini = 0.0<br/>samples = 3<br/>value = [14.196, 0.0]<br/>class = 0>, fillcolor="#e58139"] ;
737 -> 738 ;
739 [label=<gini = 0.0<br/>samples = 1<br/>value = [0.0, 0.582]<br/>class = 1>, fillcolor="#399de5"] ;
737 -> 739 ;
740 [label=<YEAR &le; 2010.0<br/>gini = 0.205<br/>samples = 16<br/>value = [53.234, 6.984]<br/>class = 0>, fillcolor="#e89253"] ;
718 -> 740 ;
741 [label=<LONGITUDE &le; -79.362<br/>gini = 0.061<br/>samples = 12<br/>value = [53.234, 1.746]<br/>class = 0>, fillcolor="#e6853f"] ;
740 -> 741 ;
742 [label=<YEAR &le; 2007.0<br/>gini = 0.021<br/>samples = 10<br/>value = [53.234, 0.582]<br/>class = 0>, fillcolor="#e5823b"] ;
741 -> 742 ;
743 [label=<gini = 0.0<br/>samples = 5<br/>value = [28.391, 0.0]<br/>class = 0>, fillcolor="#e58139"] ;
742 -> 743 ;
744 [label=<IMPACTYPE &le; 8.0<br/>gini = 0.045<br/>samples = 5<br/>value = [24.842, 0.582]<br/>class = 0>, fillcolor="#e6843e"] ;
742 -> 744 ;
745 [label=<gini = 0.0<br/>samples = 4<br/>value = [24.842, 0.0]<br/>class = 0>, fillcolor="#e58139"] ;
744 -> 745 ;
746 [label=<gini = 0.0<br/>samples = 1<br/>value = [0.0, 0.582]<br/>class = 1>, fillcolor="#399de5"] ;
744 -> 746 ;
747 [label=<INJURY &le; 4.0<br/>gini = 0.0<br/>samples = 2<br/>value = [0.0, 1.164]<br/>class = 1>, fillcolor="#399de5"] ;
741 -> 747 ;
748 [label=<gini = 0.0<br/>samples = 1<br/>value = [0.0, 0.582]<br/>class = 1>, fillcolor="#399de5"] ;
747 -> 748 ;
749 [label=<gini = 0.0<br/>samples = 1<br/>value = [0.0, 0.582]<br/>class = 1>, fillcolor="#399de5"] ;
747 -> 749 ;
750 [label=<INJURY &le; 3.0<br/>gini = 0.0<br/>samples = 4<br/>value = [0.0, 5.238]<br/>class = 1>, fillcolor="#399de5"] ;
740 -> 750 ;
751 [label=<gini = 0.0<br/>samples = 2<br/>value = [0.0, 2.91]<br/>class = 1>, fillcolor="#399de5"] ;
750 -> 751 ;
752 [label=<gini = 0.0<br/>samples = 2<br/>value = [0.0, 2.328]<br/>class = 1>, fillcolor="#399de5"] ;
750 -> 752 ;
753 [label=<gini = -0.0<br/>samples = 31<br/>value = [0.0, 28.518]<br/>class = 1>, fillcolor="#399de5"] ;
673 -> 753 ;
754 [label=<ACCLOC &le; 4.5<br/>gini = 0.472<br/>samples = 296<br/>value = [340.697, 209.519]<br/>class = 0>, fillcolor="#f5ceb3"] ;
642 -> 754 ;
755 [label=<INJURY &le; 0.5<br/>gini = 0.5<br/>samples = 248<br/>value = [195.191, 185.657]<br/>class = 0>, fillcolor="#fef9f5"] ;
754 -> 755 ;
756 [label=<gini = 0.0<br/>samples = 28<br/>value = [127.761, 0.0]<br/>class = 0>, fillcolor="#e58139"] ;
755 -> 756 ;
757 [label=<IMPACTYPE &le; 4.5<br/>gini = 0.391<br/>samples = 220<br/>value = [67.43, 185.657]<br/>class = 1>, fillcolor="#81c1ee"] ;
755 -> 757 ;
758 [label=<PEDCOND &le; 8.5<br/>gini = 0.271<br/>samples = 153<br/>value = [24.842, 128.621]<br/>class = 1>, fillcolor="#5fb0ea"] ;
757 -> 758 ;
759 [label=<gini = 0.0<br/>samples = 75<br/>value = [0.0, 67.512]<br/>class = 1>, fillcolor="#399de5"] ;
758 -> 759 ;
760 [label=<DIVISION &le; 13.5<br/>gini = 0.411<br/>samples = 78<br/>value = [24.842, 61.11]<br/>class = 1>, fillcolor="#89c5f0"] ;
758 -> 760 ;
761 [label=<PEDESTRIAN &le; 0.5<br/>gini = 0.455<br/>samples = 62<br/>value = [24.842, 45.978]<br/>class = 1>, fillcolor="#a4d2f3"] ;
760 -> 761 ;
762 [label=<MONTH &le; 7.5<br/>gini = 0.394<br/>samples = 25<br/>value = [7.098, 19.206]<br/>class = 1>, fillcolor="#82c1ef"] ;
761 -> 762 ;
763 [label=<INJURY &le; 4.0<br/>gini = 0.491<br/>samples = 14<br/>value = [7.098, 9.312]<br/>class = 1>, fillcolor="#d0e8f9"] ;
762 -> 763 ;
764 [label=<gini = 0.0<br/>samples = 8<br/>value = [0.0, 6.402]<br/>class = 1>, fillcolor="#399de5"] ;
763 -> 764 ;
765 [label=<LONGITUDE &le; -79.473<br/>gini = 0.412<br/>samples = 6<br/>value = [7.098, 2.91]<br/>class = 0>, fillcolor="#f0b58a"] ;
763 -> 765 ;
766 [label=<gini = 0.0<br/>samples = 2<br/>value = [0.0, 1.746]<br/>class = 1>, fillcolor="#399de5"] ;
765 -> 766 ;
767 [label=<DAY &le; 12.5<br/>gini = 0.242<br/>samples = 4<br/>value = [7.098, 1.164]<br/>class = 0>, fillcolor="#e99659"] ;
765 -> 767 ;
768 [label=<gini = 0.0<br/>samples = 2<br/>value = [7.098, 0.0]<br/>class = 0>, fillcolor="#e58139"] ;
767 -> 768 ;
769 [label=<LONGITUDE &le; -79.424<br/>gini = 0.0<br/>samples = 2<br/>value = [0.0, 1.164]<br/>class = 1>, fillcolor="#399de5"] ;
767 -> 769 ;
770 [label=<gini = 0.0<br/>samples = 1<br/>value = [0.0, 0.582]<br/>class = 1>, fillcolor="#399de5"] ;
769 -> 770 ;
